le_net5/conv2d/kernel:0
(5, 5, 3, 6)
[[[[-0.28364572  0.15374483 -0.05285349  0.35659155  0.2509184
    -0.3758575 ]
   [ 0.26639867  0.28317305 -0.03384231 -0.06427902  0.27996093
     0.13036805]
   [ 0.05402456  0.51156163 -0.36742717 -0.3074473  -0.24522859
    -0.10389654]]

  [[-0.1014241   0.07300816 -0.02320575  0.04164722  0.08610097
    -0.25467026]
   [ 0.04193148  0.31330487  0.19984521 -0.15486622  0.10551883
     0.17609714]
   [ 0.17773055  0.28031406 -0.09596196 -0.3339166  -0.05246281
    -0.08361112]]

  [[-0.24976124  0.2918365  -0.04132649  0.16956228  0.152137
    -0.35215065]
   [ 0.24751125  0.3272118  -0.06765473 -0.26241663 -0.05636624
     0.22643016]
   [ 0.03337497  0.284725   -0.11861709 -0.33283398 -0.07158114
    -0.06973714]]

  [[-0.02812713  0.0569171   0.22560322  0.2676351   0.05638019
    -0.4542708 ]
   [ 0.16317104  0.2945805   0.16579723  0.08490597 -0.16772081
     0.19547886]
   [ 0.11057338  0.32778916 -0.23998456 -0.16863753 -0.2511465
    -0.0287668 ]]

  [[-0.17205736  0.15739024  0.24800073  0.2345887   0.06286962
    -0.45542288]
   [ 0.11438502  0.19715399  0.26793253 -0.01015047 -0.17408103
     0.22295192]
   [-0.00228225  0.3621399   0.02674658  0.00943354 -0.21469785
    -0.13168876]]]


 [[[-0.23155548 -0.07976945  0.09676905  0.30643082  0.3135012
    -0.42094237]
   [ 0.13328691  0.07342664 -0.0069546  -0.259656    0.2384189
     0.03074553]
   [-0.02704326  0.16249199 -0.37339115 -0.32062927 -0.04398579
    -0.02802189]]

  [[-0.27141663  0.04335318  0.03354128  0.1528858   0.06801595
    -0.2712136 ]
   [ 0.22413108  0.16869467  0.08944236 -0.30411166  0.15535726
     0.17342933]
   [ 0.00977327  0.43746078 -0.1960121  -0.21362181 -0.10252348
    -0.07737512]]

  [[-0.12608427 -0.14327891 -0.02440969 -0.05299601  0.2100256
    -0.28035864]
   [ 0.2595943   0.08547512  0.08104456 -0.11998813  0.01379322
     0.05817514]
   [ 0.16503423  0.44786254 -0.26809362 -0.39658254 -0.10119701
     0.11557122]]

  [[-0.1498458   0.05501539  0.22941826  0.31522253 -0.00217954
    -0.24469638]
   [ 0.31226572  0.19502172  0.25075954  0.10341478 -0.18545556
     0.21200073]
   [-0.01900404  0.32095504 -0.29525998 -0.03330974 -0.23882689
    -0.02266271]]

  [[-0.22221535 -0.10853574  0.22849894  0.46175185 -0.07613615
    -0.35418683]
   [ 0.23751424  0.11650345  0.27187663  0.08242252 -0.1812855
     0.11985333]
   [-0.00345568  0.31992862 -0.22564146  0.2010564  -0.27011758
    -0.11759807]]]


 [[[-0.13335548 -0.11509455  0.27244073  0.03444589  0.32823327
    -0.2701379 ]
   [ 0.2119321  -0.16928402  0.09584335 -0.22698817  0.07312493
     0.223521  ]
   [ 0.00802419  0.0614277  -0.25878778 -0.2763451   0.07788422
     0.00758777]]

  [[-0.06806612 -0.10128757  0.35497272  0.1637307   0.10054124
    -0.17771766]
   [ 0.14152886 -0.08224786  0.25683865 -0.20471138  0.11862303
     0.31866774]
   [ 0.08184061 -0.08059616 -0.03202606 -0.32020095 -0.08568814
     0.08062448]]

  [[-0.16121027 -0.32066983  0.1867396  -0.06442684  0.07049225
    -0.24574108]
   [ 0.11749306 -0.0275695  -0.10517713 -0.1001529   0.1324704
     0.06988569]
   [ 0.15644148  0.01527398 -0.37359476 -0.35810575 -0.30784094
     0.13080391]]

  [[-0.18069988 -0.2924039  -0.07304432  0.32975453 -0.06938054
    -0.3009875 ]
   [ 0.0076634   0.02267918 -0.14439595 -0.02825136  0.10693379
     0.12091508]
   [ 0.10963228 -0.06299207 -0.3897892  -0.01389119 -0.45598778
     0.04454741]]

  [[-0.05082436 -0.20285782 -0.04083321  0.38126218 -0.03083709
    -0.08563112]
   [ 0.25959218 -0.08518671 -0.04296188  0.18450426 -0.08775613
     0.15922427]
   [ 0.03364548  0.00843246 -0.15649334  0.04933705 -0.47385767
    -0.01648325]]]


 [[[-0.12118658 -0.26290587  0.23924895 -0.16219844  0.3138936
    -0.17585024]
   [ 0.07128786 -0.22273916  0.27071396 -0.3490192   0.04709329
     0.3009677 ]
   [ 0.06627662 -0.06179777 -0.29703635 -0.43082422 -0.10103631
     0.06540465]]

  [[-0.15043166 -0.21274456  0.25792265  0.00593223  0.22879477
    -0.08282409]
   [ 0.01239058 -0.3402245   0.12509212 -0.30683598  0.20827454
     0.1629714 ]
   [ 0.02400947 -0.07390828 -0.06660116 -0.5395571  -0.09909865
    -0.02629162]]

  [[-0.05655403 -0.4621067   0.04953174 -0.01032545 -0.05490529
    -0.21830672]
   [ 0.19170325 -0.33171856 -0.0785905   0.0133517  -0.07271217
     0.25642306]
   [ 0.19202349  0.08111054 -0.3477455  -0.10079385 -0.45486796
     0.00209812]]

  [[-0.09578748 -0.43378055  0.09682019  0.35039815 -0.01083507
    -0.18953072]
   [ 0.12926546 -0.18975036 -0.13154991  0.06600926  0.02818146
     0.24241544]
   [ 0.13705975 -0.01099175 -0.32517627  0.04763093 -0.4685736
    -0.05132632]]

  [[-0.08933638 -0.320127   -0.16302367  0.342912   -0.06573676
    -0.09520872]
   [-0.01775715 -0.2515671   0.0818118   0.11792225  0.17942767
     0.3035408 ]
   [ 0.03649954 -0.0137695  -0.25961447 -0.12970065 -0.25215787
    -0.08284985]]]


 [[[-0.07159297 -0.25081936  0.17765799 -0.28254846  0.09347057
    -0.029234  ]
   [ 0.03693563 -0.32033718 -0.04977679 -0.21033174  0.10751369
     0.28293523]
   [-0.00566272  0.06751627 -0.09526324 -0.4052093   0.01949689
     0.06785898]]

  [[-0.09996472 -0.37654462  0.10937086 -0.20149992  0.15592653
    -0.0231693 ]
   [ 0.13544051 -0.30756763 -0.129573   -0.41910985  0.16012438
     0.32837108]
   [ 0.02447129 -0.08272075 -0.3677747  -0.42268133 -0.15753187
    -0.08161218]]

  [[-0.13142727 -0.5512028  -0.09273091  0.12375817 -0.25888142
    -0.08659323]
   [ 0.12782793 -0.33811337 -0.11570942 -0.01793155 -0.09556688
     0.1828445 ]
   [ 0.02825827  0.010626   -0.22286068 -0.19874306 -0.4999934
     0.05902677]]

  [[-0.05307035 -0.49979106 -0.09268674  0.25381035 -0.11195991
     0.06699897]
   [ 0.07273374 -0.37554932 -0.04561729  0.02353162  0.08500282
     0.28342777]
   [-0.03575266 -0.01943552 -0.2040354  -0.13081732 -0.42586082
     0.11103176]]

  [[-0.07321852 -0.44222182 -0.06600513  0.2874667  -0.05024682
    -0.01641787]
   [ 0.15106675 -0.17512313  0.0695888  -0.02657677  0.19389975
     0.23430121]
   [ 0.09855064 -0.16081317 -0.37453246 -0.11231216 -0.35197526
    -0.04022288]]]]
le_net5/conv2d/bias:0
(6,)
[-0.06439777 -0.23918156  0.25556007  0.23826365  0.22556512 -0.01762398]
le_net5/conv2d_1/kernel:0
(5, 5, 6, 16)
[[[[ 1.14030682e-01 -1.50314420e-01 -1.66365579e-01 -1.55593529e-01
    -1.03475235e-01 -1.20589852e-01 -1.81237850e-02 -3.33025418e-02
     1.51288912e-01  1.65054128e-01 -2.86336709e-03 -7.11941952e-03
    -9.97393355e-02  8.45844299e-02  1.68842450e-01 -1.15825608e-01]
   [ 2.50856251e-01 -4.42177236e-01  3.15139666e-02 -2.32088104e-01
    -1.70024991e-01  2.19089255e-01  3.21844667e-02  9.68049467e-02
     3.07248775e-02  2.53870159e-01  3.04274559e-01  4.53805029e-01
     8.21806043e-02  5.24645448e-02  5.70992768e-01  1.29809931e-01]
   [-1.58274874e-01  1.07074939e-01  2.55123794e-01  1.21353813e-01
     1.60785839e-01 -1.28458604e-01  2.68983454e-01  5.25631420e-02
    -3.56758744e-01 -2.80344397e-01 -1.77526265e-01 -1.50692463e-01
     4.46906425e-02 -8.48203897e-03 -3.52024138e-01  1.84767529e-01]
   [-3.05644810e-01  1.97574973e-01  3.14152479e-01  4.14321214e-01
     2.72258401e-01  1.99176706e-02  2.25054100e-01  2.86493778e-01
     2.74510622e-01 -3.04181203e-02 -2.28050962e-01 -1.94406763e-01
     2.13724628e-01 -1.19527066e-02 -4.15400118e-01  3.06387484e-01]
   [-2.23594457e-01  1.82066798e-01  7.49989599e-02  2.49783471e-01
     2.60525286e-01 -8.82053971e-02  5.93384309e-03  1.62933975e-01
    -4.33736742e-01 -5.02087712e-01 -3.08054477e-01  3.55044790e-02
    -2.30890289e-02 -1.33806005e-01 -3.81655633e-01  1.50333956e-01]
   [ 1.86822601e-02 -3.22902501e-01 -3.19817305e-01  5.79364412e-02
     9.60958675e-02 -8.01998377e-02 -4.66405302e-02 -2.41760701e-01
    -7.95813426e-02  8.36852044e-02  1.83432519e-01  1.45713001e-01
    -5.62995970e-02  8.39876533e-02  9.76430774e-02  7.44602829e-02]]

  [[-1.10489540e-02 -1.27450332e-01 -1.40661895e-01 -1.19509893e-02
     6.47627516e-03 -2.28919927e-02 -9.88530591e-02 -1.21346943e-01
     1.06304377e-01  7.00163096e-02  8.61617327e-02  8.99493024e-02
    -4.20874506e-02  1.43721834e-01  1.59175470e-02  7.49243516e-03]
   [ 3.55971962e-01 -3.51531088e-01  7.66701251e-02 -2.58324981e-01
    -1.58907458e-01  1.40471026e-01 -3.24461758e-02  2.13237509e-01
    -2.51862854e-01 -1.22583173e-01  3.85292709e-01  4.40231025e-01
     6.29673013e-03  3.37657481e-02  5.34673214e-01  3.22950184e-02]
   [-6.84040785e-02  1.77344352e-01  2.57980824e-01  2.63573498e-01
     3.54079604e-01 -2.88248479e-01  1.55323684e-01  2.62999833e-01
    -5.04460156e-01 -5.36494195e-01 -2.13412210e-01  2.75528319e-02
     7.09688757e-03  1.26153452e-03 -3.38272899e-01  2.89892048e-01]
   [-1.34849697e-01  2.94570208e-01  2.72404820e-01  4.16603655e-01
     3.68501276e-01 -1.07231319e-01  1.19586311e-01  2.77821600e-01
    -3.51315551e-02 -1.13894887e-01 -4.02730793e-01 -1.21013679e-01
     2.77638108e-01  1.08653076e-01 -3.21541756e-01  3.13891351e-01]
   [-6.49138018e-02  9.04124305e-02  8.09968486e-02  2.25262150e-01
     2.61517018e-01 -2.58580327e-01  1.49227843e-01  1.68910861e-01
    -4.72384900e-01 -3.94616187e-01 -3.42518061e-01  5.42634353e-02
    -1.63195983e-01 -1.49619251e-01 -2.21475109e-01  2.37726212e-01]
   [ 1.42264083e-01 -3.11636060e-01 -3.50408137e-01 -1.11345775e-01
    -1.37256049e-02  8.99015591e-02  5.18354587e-02 -3.39359105e-01
    -1.06843701e-02  1.51800796e-01  3.24043393e-01  6.36519715e-02
    -3.36918496e-02  2.09259510e-01  9.25590470e-02  1.11193940e-01]]

  [[ 2.33065188e-02 -5.46554402e-02 -1.09004050e-01 -1.58130169e-01
     2.02297345e-02 -1.26797529e-02 -1.15319468e-01 -2.76876658e-01
     2.06184208e-01  1.62081227e-01  1.90694511e-01  7.17930496e-02
     2.54374072e-02  4.22068089e-02  1.49507359e-01  7.52313063e-03]
   [ 3.83390158e-01 -3.55414987e-01  6.93318397e-02 -2.66979516e-01
    -1.76535219e-01  6.54669404e-02 -4.04125564e-02  4.45217371e-01
    -3.64962727e-01 -5.13603687e-02  3.40603948e-01  4.33191419e-01
    -1.93366066e-01 -6.19653128e-02  6.04949832e-01  3.93365622e-02]
   [-1.27336130e-01  1.64510980e-01  1.36889175e-01  2.00383753e-01
     2.64365971e-01 -4.41170186e-01  1.98087946e-01  3.55644673e-01
    -5.33560991e-01 -2.26708561e-01 -3.08624059e-01 -7.41317347e-02
    -1.10531814e-01 -1.15449756e-01 -1.81476131e-01  1.78800344e-01]
   [-1.86488613e-01  3.22501510e-01  3.30498755e-01  3.76692533e-01
     2.50489503e-01 -3.32369745e-01  1.24813803e-01  4.32284921e-01
    -5.01233697e-01 -3.52238059e-01 -3.92031640e-01  7.12468326e-02
     1.83265150e-01 -5.83826602e-02 -2.98428446e-01  1.49308249e-01]
   [-2.01084733e-01  1.92700878e-01  1.45953640e-01  3.41067791e-01
     3.20333034e-01 -4.12536770e-01  1.33112490e-01  3.17721784e-01
    -3.53946149e-01 -7.37266913e-02 -3.13230276e-01  6.24026172e-02
    -1.48343235e-01 -1.96712941e-01 -2.57638276e-01  1.35235205e-01]
   [-4.92147990e-02 -3.45929146e-01 -3.42714995e-01 -1.09073885e-01
    -2.76953168e-02  9.86302868e-02  6.97904006e-02 -4.34162080e-01
     1.47663672e-02  1.18893571e-01  2.68720061e-01  1.21614657e-01
    -1.04156680e-01  2.57986575e-01  6.91386163e-02  6.63878769e-02]]

  [[ 1.27709359e-01 -5.10206930e-02 -2.61013079e-02 -1.61332056e-01
    -8.98781344e-02 -9.99663677e-03 -5.68181872e-02 -2.17617124e-01
     8.90532583e-02  1.83140319e-02  8.74103233e-02  5.34056593e-03
     1.69124193e-02  2.36573610e-02  2.67723780e-02 -2.53026411e-02]
   [ 4.22449410e-01 -3.90954405e-01 -9.67652258e-03 -2.61220962e-01
    -9.13607776e-02  3.58901545e-02  1.15546301e-01  3.10685247e-01
     3.12867053e-02  5.31097353e-02  3.24381322e-01  4.72593486e-01
    -2.04514086e-01  4.97203367e-03  5.77075124e-01  1.12496264e-01]
   [-1.61068916e-01  2.34422848e-01  2.93656349e-01  1.56933725e-01
     2.05653861e-01 -4.17834848e-01  3.01097482e-01  1.17795654e-01
    -1.91680998e-01 -2.31904984e-02 -3.62927526e-01 -1.29033536e-01
    -1.89314187e-01 -2.09008120e-02 -1.52152076e-01  2.34372750e-01]
   [-1.89194039e-01  3.25539291e-01  3.41049939e-01  3.46098304e-01
     2.73484200e-01 -3.60050946e-01  2.26144150e-01  5.49022615e-01
    -4.80304360e-01 -2.76586950e-01 -3.97062331e-01  3.91883515e-02
    -9.03246403e-02  9.22306776e-02 -2.29974717e-01  1.98425293e-01]
   [-1.10636637e-01  2.61026263e-01  1.94974989e-01  2.03381181e-01
     2.66492188e-01 -1.26618639e-01  2.60691762e-01  2.94578165e-01
    -4.55393828e-02  6.03009053e-02 -3.60242873e-01 -1.06030501e-01
    -1.56025425e-01 -2.10590437e-02 -1.39202833e-01  2.89277166e-01]
   [ 1.42829955e-01 -3.63650590e-01 -2.40033597e-01  7.87278917e-03
     6.95263222e-02  1.32140934e-01 -7.12839216e-02 -4.57453817e-01
     3.29050422e-02 -4.36220653e-02  2.78817922e-01  1.38199866e-01
    -2.23593190e-01  2.08982259e-01  5.88672645e-02 -2.47745793e-02]]

  [[ 1.63963363e-01 -5.73924705e-02 -8.90917182e-02 -1.53312311e-02
    -1.08943038e-01  6.15928182e-03 -1.56860933e-01 -5.47934361e-02
     4.45034951e-02  2.20076051e-02  1.75686643e-01  3.28430720e-02
     8.98248330e-03  4.60999757e-02  2.18308289e-02  4.24177721e-02]
   [ 3.73003036e-01 -4.31642115e-01 -1.96509925e-03 -2.79504120e-01
    -1.76383674e-01  2.45378479e-01  1.51219428e-01 -2.31279880e-02
     1.21746577e-01  1.44593045e-01  3.53452832e-01  4.81149733e-01
    -9.48485881e-02  1.04755141e-01  6.48666263e-01 -5.88855073e-02]
   [-1.51055723e-01  3.00912201e-01  2.19668195e-01  2.87438571e-01
     2.43827134e-01 -1.75498679e-01  3.70318860e-01  1.13830201e-01
    -4.34792116e-02  1.02674857e-01 -2.22242221e-01 -1.14927553e-01
    -1.34704888e-01 -8.12048838e-02 -1.11132734e-01  2.21271187e-01]
   [-2.91364282e-01  2.49204367e-01  3.21680397e-01  2.12091640e-01
     2.48451903e-01 -2.18441144e-01  1.67941943e-01  5.41295409e-01
    -2.11233601e-01  8.50607902e-02 -3.01600456e-01 -2.49414109e-02
    -1.08021669e-01  9.65818539e-02 -2.18518406e-01  3.63156796e-01]
   [-2.90221155e-01  1.08102448e-01  2.90317893e-01  3.11821848e-01
     2.59831965e-01 -3.77801880e-02  3.02706063e-01  1.97951853e-01
     3.45546395e-01  7.65029192e-02 -2.68592328e-01 -9.44802910e-02
     2.77424287e-02  7.00633824e-02 -2.17550188e-01  3.10356110e-01]
   [ 2.52033677e-02 -2.85352081e-01 -2.16405213e-01  9.09256935e-02
     6.28763437e-02 -1.57084335e-02 -2.15299316e-02 -1.72314271e-01
     6.59825951e-02 -2.34856550e-02  2.88660526e-01  2.58955901e-04
    -1.67925939e-01  1.28181666e-01 -5.44180982e-02  1.22774251e-01]]]


 [[[-1.04894610e-02 -1.41377866e-01 -6.83791637e-02 -1.55955240e-01
    -1.62155181e-01  7.35553354e-02 -1.71895072e-01 -1.49855435e-01
    -1.17568271e-02  1.28479805e-02  4.64684553e-02  7.48331919e-02
    -4.20982279e-02 -7.64438957e-02  9.86067429e-02 -4.20903005e-02]
   [ 2.84075528e-01 -3.00512373e-01  6.18583746e-02 -2.09972501e-01
    -1.28140286e-01  2.22700223e-01  2.64948428e-01  1.82527483e-01
    -6.88050240e-02  2.68687636e-01  1.82370365e-01  2.20065340e-01
     1.51977360e-01  5.01590967e-02  3.64712209e-01 -4.18037772e-02]
   [-2.50233114e-01  2.43612573e-01  2.79384166e-01  3.88755947e-02
     1.11590281e-01 -2.15553865e-01  2.05216512e-01  1.95642877e-02
    -1.27965674e-01 -2.40383849e-01 -4.63103652e-02 -9.11722630e-02
     9.29684117e-02 -1.20355569e-01 -3.19244236e-01  1.51774943e-01]
   [-3.42331201e-01  3.40735942e-01  2.72831291e-01  2.45369270e-01
     3.18337262e-01  1.00971349e-01  1.18020259e-01 -4.75415587e-02
     4.86490250e-01  3.11665952e-01 -1.42772019e-01 -6.29003495e-02
     1.59316316e-01  1.72239587e-01 -2.16263577e-01  6.57800585e-02]
   [-9.23628956e-02  1.73172832e-01  1.65444732e-01  8.88235196e-02
     2.52021253e-01 -1.16564013e-01  1.69270888e-01  7.24037364e-02
    -3.09299409e-01 -4.23015267e-01 -2.35115632e-01 -7.46683404e-02
    -7.57939555e-03 -6.47939071e-02 -2.31934577e-01  1.30739391e-01]
   [-8.90557095e-03 -4.14006889e-01 -2.32392088e-01 -2.42155679e-02
    -1.82826407e-02  2.34459154e-02 -1.51901707e-01 -1.32996231e-01
    -7.69418925e-02  5.49238734e-02  3.59643586e-02  3.42475697e-02
    -1.40340123e-02  2.55473629e-02 -5.40448055e-02  8.04858878e-02]]

  [[ 1.11978464e-02 -1.90755486e-01 -2.21914470e-01 -1.26410276e-01
     2.21434981e-02  8.81507099e-02 -7.30749965e-02 -1.50031269e-01
     1.67200640e-01  1.99469388e-01  8.58264491e-02 -5.07842116e-02
     1.92572791e-02  4.78316136e-02  2.90144812e-02 -1.14021830e-01]
   [ 3.72762322e-01 -1.49735242e-01  3.27374727e-01 -3.05101395e-01
    -3.46815199e-01  6.20570779e-02  2.26604328e-01  2.86635041e-01
    -1.91057190e-01 -4.67579030e-02  2.20596343e-01  2.42906108e-01
    -1.38608858e-01 -1.43395469e-01  2.44421333e-01 -1.22694179e-01]
   [-2.52461612e-01  1.38243541e-01  2.42435202e-01  1.31858736e-01
     1.97366089e-01 -3.79434735e-01  1.41172335e-01  2.45844632e-01
    -5.66344321e-01 -4.57024783e-01 -2.38182232e-01 -4.14947420e-02
    -5.79020344e-02 -6.82074800e-02 -2.72902966e-01  1.63189515e-01]
   [-2.65136480e-01  3.93592298e-01  3.00113916e-01  3.03710163e-01
     2.98142552e-01 -8.73722062e-02  2.16264203e-01  1.14492401e-01
    -2.55016703e-03 -8.67742300e-02 -2.01840073e-01 -2.81580654e-03
     2.31633231e-01  5.11509478e-02 -1.65317431e-01  2.75100023e-01]
   [-2.39559293e-01  9.66054723e-02  8.70274901e-02  2.67307460e-01
     2.15092823e-01 -3.56737673e-01  3.17207091e-02  2.25032464e-01
    -5.72866559e-01 -4.18753743e-01 -1.79460481e-01 -8.71883258e-02
    -2.64922921e-02 -1.23643667e-01 -2.25167885e-01  1.59968257e-01]
   [ 1.26860008e-01 -4.92650807e-01 -3.48125845e-01 -1.29749551e-01
     1.98862236e-02 -8.34451616e-02 -9.96561795e-02 -2.39709109e-01
    -5.06573021e-02 -9.72251594e-02  9.89804342e-02  2.06839025e-01
    -1.54799536e-01 -1.45213800e-02 -4.46336567e-02  2.11624373e-02]]

  [[ 2.86126193e-02 -1.08502403e-01 -8.46647322e-02 -3.42801698e-02
     1.58644430e-02  5.79489879e-02 -9.32537913e-02 -2.79752702e-01
     6.95244968e-02  1.65793255e-01  4.05076146e-02 -7.90912285e-02
     6.10357486e-02  1.14073500e-01 -6.13911115e-02 -1.24068625e-01]
   [ 2.15752378e-01 -9.46048349e-02  3.86630952e-01 -2.51065433e-01
    -2.15181574e-01  2.46176735e-01  3.49468797e-01  4.60749954e-01
    -2.61840492e-01 -4.75956835e-02  3.11913818e-01  1.84036449e-01
    -1.37384653e-01 -2.09465325e-01  3.32110345e-01  3.05022243e-02]
   [-2.60132611e-01  2.42350668e-01  1.90644145e-01  1.97033644e-01
     2.86195546e-01 -5.39185643e-01  1.08957358e-01  1.84534237e-01
    -5.03635526e-01 -3.99504781e-01 -2.77602255e-01  2.43589114e-02
    -1.43657207e-01 -2.23589651e-02 -1.23023696e-01  2.60070741e-01]
   [-1.28976941e-01  3.26832831e-01  2.98612356e-01  1.71017453e-01
     3.02116841e-01 -3.72917891e-01  2.52638489e-01  4.04508263e-01
    -4.17642176e-01 -4.35989261e-01 -2.32526213e-01 -9.61975530e-02
     1.34343058e-01 -2.32684589e-03 -8.73766989e-02  2.90876508e-01]
   [-2.03270644e-01  1.69771418e-01  1.15850940e-01  2.56662369e-01
     2.45658532e-01 -5.54463446e-01  6.05722219e-02  2.71929383e-01
    -3.10056418e-01 -1.12535730e-01 -2.39891112e-01 -1.26192704e-01
    -2.48716295e-01 -1.47318274e-01 -7.59457797e-02  3.37476909e-01]
   [ 2.62092855e-02 -3.66624892e-01 -3.30035120e-01 -7.76137784e-02
    -3.19435820e-02  1.18886322e-01 -2.19916895e-01 -4.09974188e-01
     5.95485121e-02  3.21887322e-02  3.84200066e-02  2.76819598e-02
    -2.73680270e-01 -1.83072116e-03  1.01943292e-01  6.74958006e-02]]

  [[ 8.23933929e-02 -1.35689169e-01 -5.39391749e-02 -4.91388096e-03
     2.97123659e-02  6.50450587e-02 -2.05153063e-01 -1.51815042e-01
     3.17787081e-02  6.92848414e-02 -1.11767580e-03  5.47626503e-02
     3.92196613e-04  3.65500078e-02  1.02364816e-01 -1.82480842e-01]
   [ 3.34972233e-01 -2.24436283e-01  3.11077833e-01 -2.34125853e-01
    -1.64100945e-01  1.97318599e-01  1.95905074e-01  4.05265778e-01
    -7.80984163e-02 -1.23444036e-01  2.93224126e-01  1.74420729e-01
    -1.49691001e-01 -4.53031212e-02  2.02743813e-01 -1.18583992e-01]
   [-1.98527664e-01  2.66194761e-01  1.00641556e-01  3.09044063e-01
     2.46300280e-01 -5.60869098e-01  1.30912155e-01  1.19762801e-01
    -2.40152493e-01 -1.82492822e-01 -6.28059730e-02 -4.83947024e-02
    -2.88843572e-01  6.23279251e-02 -2.39931867e-01  1.62213907e-01]
   [-1.56893998e-01  2.57374197e-01  3.20248067e-01  3.29390764e-01
     1.82046682e-01 -5.09748936e-01  2.44814038e-01  4.72842097e-01
    -4.32011306e-01 -3.24796230e-01 -2.80991226e-01  5.90688661e-02
    -7.94634670e-02  1.02733456e-01 -4.20806892e-02  1.68932632e-01]
   [-1.33690163e-01  2.17546195e-01  2.27770746e-01  2.98210949e-01
     2.18526453e-01 -2.00222760e-01  4.37247753e-02  1.37534335e-01
     7.94208348e-02  1.53192237e-01 -3.03138614e-01 -1.43564865e-01
    -1.36651173e-01  6.74778223e-02 -2.65564024e-01  3.50131124e-01]
   [ 1.20695112e-02 -3.44050139e-01 -2.17565566e-01  1.30036566e-02
     1.25079490e-02  1.72524098e-02 -2.55487412e-01 -3.58899355e-01
    -3.73190641e-02 -3.42883766e-02  4.42705452e-02  1.43103525e-01
    -1.21472776e-01 -1.79718912e-01  5.30628525e-02  1.02741361e-01]]

  [[ 3.12393587e-02 -1.27374426e-01 -1.28326714e-01 -1.31372899e-01
    -1.55000746e-01 -1.23082235e-01 -1.96856067e-01 -8.36440772e-02
     7.38731176e-02  3.12829651e-02  1.13223866e-01  4.51517925e-02
    -2.90404148e-02 -9.20956209e-02  1.31295025e-02 -1.45637348e-01]
   [ 2.78099537e-01 -1.44451126e-01 -4.86815860e-03 -1.79854766e-01
    -1.30419403e-01  1.43170491e-01  3.24340135e-01  3.43981013e-02
     5.94252441e-03  6.08763620e-02  1.54419005e-01  1.86247528e-01
    -1.00709818e-01 -5.95092811e-02  3.13420057e-01 -1.45437375e-01]
   [-1.37156531e-01  1.19144827e-01  7.23391473e-02  1.46084636e-01
     6.40629902e-02 -1.37670055e-01  1.30452678e-01  6.38191923e-02
     4.31782790e-02  1.59677073e-01 -2.22326607e-01 -4.15144935e-02
    -2.27505758e-01  6.61913604e-02 -1.19378641e-01  1.89995468e-01]
   [-2.00330541e-01  2.30788335e-01  1.85921520e-01  3.45740885e-01
     2.58449227e-01 -1.38612658e-01  1.30287483e-01  5.05772054e-01
     1.15135342e-01  1.67506918e-01 -1.15765482e-01 -1.30726114e-01
    -2.80132890e-01  1.51985034e-01 -1.44917294e-01  2.01654866e-01]
   [-2.73902178e-01  1.67982370e-01  1.52822956e-01  6.84775040e-02
     2.33094126e-01 -1.27069548e-01  1.03152826e-01  3.65868618e-04
     4.94191617e-01  2.57508844e-01 -1.42666310e-01 -1.52489781e-01
     3.73295173e-02  1.46656871e-01 -1.91434816e-01  1.52443767e-01]
   [ 1.37069538e-01 -2.52074748e-01 -1.73405051e-01  5.26392832e-02
     6.69552833e-02  5.79494517e-03 -2.22099423e-01 -2.80091196e-01
    -2.32145414e-02  2.64785495e-02  1.65398657e-01  1.02552071e-01
    -2.54603058e-01 -2.80408394e-02  4.71843779e-02 -4.90046181e-02]]]


 [[[ 1.22591332e-01 -1.90996796e-01 -1.01550013e-01  1.78113934e-02
     1.87372975e-02 -7.79241845e-02 -7.57999718e-02 -3.99841480e-02
     3.51142846e-02  6.96093440e-02 -1.17931187e-01 -2.23695161e-03
    -1.09442800e-01 -1.88291013e-01  6.77279457e-02 -1.01786308e-01]
   [ 2.22788289e-01 -9.63476151e-02 -2.25366279e-02 -2.14171261e-01
    -1.71118796e-01  2.79829919e-01  1.44664198e-01  2.03854859e-01
    -3.86201255e-02  1.55714616e-01  2.24497899e-01 -5.97427376e-02
     6.86805472e-02 -7.77837355e-04  3.04587424e-01 -2.47473940e-02]
   [-2.96379834e-01  1.31860167e-01  1.55102804e-01  1.20333053e-01
     2.38963887e-01 -9.95696187e-02  8.95561874e-02  2.34911330e-02
    -1.13201104e-01 -7.11001083e-02  1.56286374e-01 -1.81278333e-01
     1.01081617e-01  1.32624835e-01 -2.94505954e-01  2.82354027e-01]
   [-2.91852713e-01  2.07233056e-01  6.33194372e-02  2.69889086e-01
     2.51983434e-01  2.10783929e-01  6.04124367e-02 -1.14354677e-01
     4.98029709e-01  2.80550689e-01  1.67924851e-01 -1.84539199e-01
     9.03849974e-02  3.17419261e-01 -9.57254469e-02  9.98158678e-02]
   [-1.69309452e-01 -3.40519450e-03  1.25674039e-01  1.20767087e-01
     1.48187190e-01 -2.16973230e-01 -4.07924950e-02  1.89683601e-01
    -2.81138062e-01 -4.26045299e-01  2.92178895e-02 -1.90637216e-01
    -1.49626834e-02  6.72259834e-03 -1.90720096e-01  1.53553024e-01]
   [ 1.54220164e-01 -2.75039434e-01  1.71000697e-02 -3.55952494e-02
    -1.05917551e-01  7.77600110e-02  1.43612716e-02 -1.67350367e-01
    -1.43996060e-01 -9.17875096e-02 -2.78133929e-01  2.38023028e-01
    -3.55749857e-03 -2.29963258e-01  8.72208271e-03  2.25430466e-02]]

  [[ 1.30055994e-01 -1.14831209e-01 -1.53149694e-01 -1.51414141e-01
     1.66351516e-02 -2.84473449e-02 -9.23258439e-02 -9.68239456e-02
     1.27742425e-01  1.35395333e-01 -1.97952658e-01  1.06109224e-01
     2.06786953e-02 -3.80249210e-02  1.11117408e-01 -9.79233384e-02]
   [ 1.89947203e-01  1.07638314e-01  2.04785392e-01 -2.24074021e-01
    -2.33827680e-01  1.21965766e-01  3.20525378e-01  1.97517559e-01
    -1.44642174e-01  1.28983304e-01  3.83122176e-01  4.49936539e-02
    -4.99511436e-02 -1.72082022e-01  1.66137815e-01 -4.89320271e-02]
   [-1.96256489e-01 -1.55371008e-02  1.48426235e-01  9.68700796e-02
     1.79835364e-01 -4.78011757e-01  7.78074861e-02 -7.99518824e-02
    -4.71937507e-01 -5.13512969e-01  1.36217609e-01 -2.74239480e-01
     5.87526746e-02 -2.05219220e-02 -2.37007588e-01  1.97684139e-01]
   [-2.89246887e-01  1.93748415e-01  1.18870817e-01  2.75881439e-01
     3.06906372e-01 -2.73828119e-01 -6.01598918e-02  1.12865582e-01
     4.67691272e-02  9.99332592e-02  1.47201732e-01 -9.71857384e-02
     1.83439180e-01  2.96702892e-01 -1.66397482e-01  2.36958057e-01]
   [-1.48510769e-01  4.63616736e-02  3.26986797e-02  6.36460781e-02
     2.26998881e-01 -5.04952192e-01 -2.63172127e-02  1.80888504e-01
    -6.03592515e-01 -4.59644049e-01 -2.43012570e-02 -2.62951910e-01
     1.17629096e-02 -1.47750787e-02 -7.04785883e-02  3.39745164e-01]
   [ 9.42170545e-02 -2.63937891e-01 -8.97504389e-03 -2.07496002e-01
    -2.18321055e-01 -3.38036381e-02 -1.01698905e-01 -1.97125942e-01
    -8.19998160e-02 -7.39569291e-02 -2.30943248e-01  1.36750132e-01
    -1.86356276e-01 -4.43294585e-01 -2.47741584e-02 -1.56609073e-01]]

  [[ 1.28304154e-01 -6.54829815e-02 -1.77357137e-01 -1.72747925e-01
    -1.76765874e-01  8.21897574e-03 -1.31858543e-01 -1.43534288e-01
     1.46413103e-01  1.68263525e-01 -1.09315954e-01  1.07969880e-01
     8.79151896e-02 -1.05479226e-01 -6.60619065e-02 -1.57653630e-01]
   [ 1.84220940e-01  2.73403209e-02  3.27571899e-01 -1.00626893e-01
    -2.04436570e-01  1.68418542e-01  5.87443888e-01  9.38069448e-02
    -1.31398916e-01  1.82697847e-02  1.92432791e-01 -1.99635029e-02
    -7.55401775e-02 -1.21082455e-01  1.79479897e-01  5.74313924e-02]
   [-1.81438684e-01 -9.32067167e-03  1.17206372e-01  2.66092986e-01
     2.89787292e-01 -7.71952569e-01  1.42455533e-01  1.80220842e-01
    -4.66390580e-01 -3.76940101e-01  7.59559032e-03 -2.76686311e-01
    -2.64413431e-02  8.21663067e-03 -5.51919341e-02  2.34935984e-01]
   [-2.54921377e-01  1.45331115e-01  8.57777894e-02  1.57958701e-01
     2.08310753e-01 -4.13441837e-01  8.65553916e-02  2.33716801e-01
    -3.57429475e-01 -2.50092268e-01  1.85715437e-01 -4.22371849e-02
     1.98615372e-01  2.22727537e-01 -1.00393824e-01  1.89848781e-01]
   [-1.49806738e-01 -2.30530836e-02  7.71463811e-02  2.95506090e-01
     2.26046503e-01 -6.27360880e-01 -4.90860501e-03  1.38479263e-01
    -1.30222097e-01 -8.61831605e-02  1.59412418e-02 -9.66779590e-02
    -1.37617841e-01  4.80880886e-02 -1.61373690e-01  2.16631860e-01]
   [ 6.51518628e-02 -3.06778252e-01 -1.65631652e-01 -1.94055602e-01
    -1.07602857e-01  4.24106233e-03 -1.22766145e-01 -6.70679361e-02
    -1.22700319e-01 -8.61223191e-02 -2.46628776e-01  1.72842264e-01
    -1.67687148e-01 -3.86327624e-01 -5.80069870e-02 -1.30259484e-01]]

  [[ 6.21323325e-02 -9.80585665e-02 -8.22548121e-02 -1.40277162e-01
     2.32616514e-02  1.34665415e-01 -1.82227015e-01 -2.20192730e-01
     5.95500357e-02  1.07739240e-01 -1.29954433e-02  1.56636417e-01
     8.53521526e-02 -1.77955195e-01  6.31002188e-02 -1.55230463e-01]
   [ 1.81197047e-01  8.66387486e-02  1.99153706e-01 -1.61015436e-01
    -2.99773157e-01  1.69423744e-01  5.18180490e-01  1.35506868e-01
    -6.75240606e-02 -8.16057697e-02  6.84009120e-02 -1.63283125e-02
    -2.02629611e-01 -1.61918938e-01  5.85044213e-02 -2.20371243e-02]
   [-1.63683638e-01 -1.78155545e-02 -1.35424230e-02  2.45974705e-01
     2.05710948e-01 -6.64807737e-01  5.24189621e-02  1.46262601e-01
    -1.08609006e-01 -6.46895245e-02 -2.44358052e-02 -1.32678419e-01
    -1.68679848e-01  1.42927945e-01 -6.24534972e-02  3.94789755e-01]
   [-1.39016286e-01  7.24661024e-03  2.15638518e-01  3.14069152e-01
     3.44301850e-01 -5.46172321e-01  9.08876732e-02  3.86343837e-01
    -2.95654029e-01 -1.87089294e-01  1.55982718e-01 -1.74296990e-01
    -1.45353451e-01  1.36666536e-01 -8.76101404e-02  2.26098165e-01]
   [-2.25232348e-01  7.26802126e-02  1.45791069e-01  1.24865092e-01
     2.62661248e-01 -2.79281557e-01 -7.20238313e-04  1.93999946e-01
     2.45800078e-01  1.93625391e-01 -4.99955192e-02 -2.10586563e-01
    -1.07843950e-01  2.16700599e-01 -3.85267884e-02  2.29438886e-01]
   [ 2.53941137e-02 -1.66549042e-01 -1.46549016e-01 -6.21317737e-02
    -1.43365189e-01  3.68355308e-03 -2.86549985e-01 -2.11085767e-01
     7.31710568e-02 -1.58352762e-01 -1.53595656e-01  8.71568471e-02
    -2.56823719e-01 -3.84751111e-01 -5.71046434e-02 -1.30094498e-01]]

  [[ 6.66295364e-02 -1.61951333e-01 -2.97856405e-02 -8.11223760e-02
    -5.19376397e-02  6.83016405e-02 -6.57663643e-02 -2.37124898e-02
     2.15955935e-02 -8.45536292e-02 -1.70551196e-01  1.29765928e-01
     3.64939566e-03 -3.36522348e-02 -6.72433376e-02 -4.62780148e-03]
   [ 2.21802309e-01  4.15763445e-02  7.64765963e-02 -2.44476020e-01
    -2.12579578e-01  1.89809769e-01  4.86095279e-01  5.64307868e-02
    -3.86672430e-02  7.69074708e-02  1.79518327e-01  1.06668752e-02
    -6.85729831e-02 -1.78903565e-01  1.39720067e-01 -1.31533165e-02]
   [-1.67633355e-01 -5.22707496e-03 -5.11940904e-02  1.27650902e-01
     9.89384726e-02 -2.18213141e-01 -1.37617774e-02 -6.10007420e-02
     7.05660358e-02  1.37293115e-01  1.10319652e-01 -2.65153795e-01
    -1.79930016e-01  5.96726015e-02 -1.71514273e-01  1.39273554e-01]
   [-1.58690482e-01  1.01304226e-01  2.35775396e-01  1.28002301e-01
     2.08626553e-01 -3.17725748e-01  7.96637014e-02  2.85616457e-01
     4.04563509e-02  1.32368252e-01  1.59432217e-01 -1.66176781e-01
    -2.68669456e-01  2.51504779e-01 -7.30464514e-03  2.80463487e-01]
   [-2.47379720e-01 -9.97681729e-03 -8.27048197e-02  2.11044729e-01
     1.89829618e-01 -9.29459035e-02  1.04031764e-01 -1.86331764e-01
     4.62759018e-01  4.24515426e-01  6.95091709e-02 -1.88559085e-01
     4.80603948e-02  1.63427189e-01 -5.65374158e-02  1.47552103e-01]
   [ 6.66070506e-02 -2.02562705e-01 -3.40802991e-03 -8.21861029e-02
    -1.60913378e-01  2.63554510e-02 -2.09720388e-01 -1.45504743e-01
     3.03064976e-02 -6.87465593e-02 -7.95779228e-02  2.07328111e-01
    -1.80849999e-01 -3.33715230e-01 -1.12152785e-01 -1.05939776e-01]]]


 [[[ 9.05805379e-02  4.55873720e-02 -1.51769174e-02 -2.35089865e-02
    -3.09877023e-02 -6.50573298e-02 -5.82646541e-02 -8.92851651e-02
     1.56077415e-01  1.16957434e-01 -2.76858002e-01  1.07644171e-01
    -1.03462398e-01 -2.36960709e-01 -1.04985677e-01 -1.63243204e-01]
   [-8.33055191e-03  1.57366216e-01 -1.02737278e-01 -2.28124127e-01
    -1.92968175e-01  2.26236150e-01  4.18525100e-01  7.03668073e-02
    -4.68668714e-02  2.46600270e-01  2.36442327e-01 -4.30829376e-02
     5.70061915e-02 -6.36980012e-02  1.77178636e-01  2.19005998e-02]
   [-2.77932018e-01 -3.35268863e-02 -1.71585232e-01  1.18146222e-02
     1.98962674e-01 -2.82212168e-01 -8.59385654e-02 -1.27148122e-01
    -6.66755438e-02 -2.07991838e-01  2.50786185e-01 -1.81781948e-01
     4.70266417e-02  1.72310308e-01 -1.57664314e-01  2.21491426e-01]
   [-1.25292838e-01 -1.73922077e-01 -8.41511786e-02  2.43543953e-01
     2.88857818e-01  6.56864122e-02 -2.53136516e-01 -1.41661659e-01
     3.98167491e-01  3.76645505e-01  2.94172913e-01 -1.79621533e-01
     9.97475982e-02  3.91031235e-01 -7.91609511e-02  1.84446931e-01]
   [-8.49259794e-02 -1.79559350e-01  6.01865409e-04  1.33941948e-01
     2.92566508e-01 -3.70660663e-01 -1.49558587e-02  5.63047593e-03
    -2.27071255e-01 -3.35841686e-01  2.18020752e-01 -2.75753319e-01
     1.73810013e-02  1.43745363e-01 -1.15533538e-01  3.13461691e-01]
   [ 6.11368567e-02  2.64799991e-03  5.41706085e-02 -1.95638448e-01
    -1.43426329e-01  4.67098840e-02 -1.43564269e-01 -1.12189554e-01
    -1.27548752e-02 -1.28300801e-01 -2.88914651e-01  1.05474815e-01
     3.87168303e-02 -4.66348052e-01 -3.14990543e-02 -1.36804193e-01]]

  [[ 6.57185689e-02 -2.86669247e-02 -1.42815299e-02 -2.36164201e-02
    -7.28745386e-02  1.01537421e-01 -9.99898240e-02 -9.51372832e-02
     2.22999766e-01  1.94841903e-02 -3.09285045e-01  6.63419813e-02
     9.98823866e-02 -1.77926406e-01  2.85929441e-03 -2.47360006e-01]
   [-8.63287151e-02  2.20946804e-01 -4.28007804e-02 -1.10884190e-01
    -2.23807722e-01  2.93555111e-01  6.36046767e-01  5.50248250e-02
    -1.27583399e-01  1.16644874e-01  4.16134238e-01  3.18275355e-02
     3.10503319e-02 -1.82574689e-01 -9.16105956e-02 -4.88943197e-02]
   [-1.06247000e-01 -1.30072236e-01 -1.81189045e-01  8.14775303e-02
     1.32502988e-01 -4.87267792e-01 -1.60625592e-01 -1.37145564e-01
    -3.29517663e-01 -3.84406596e-01  2.86669075e-01 -3.61130625e-01
    -1.74649188e-03  7.45007843e-02 -1.55976877e-01  3.88313115e-01]
   [-2.32201546e-01 -1.01223379e-01 -1.41224220e-01  1.63740978e-01
     2.59805262e-01 -3.76020998e-01 -2.22354248e-01  2.48989630e-02
     4.48269583e-02  1.90846585e-02  3.97886366e-01 -2.23011166e-01
     2.48819724e-01  3.89064312e-01 -9.52321216e-02  3.94110352e-01]
   [-2.03283414e-01 -1.74632967e-02 -2.04237491e-01  2.00507343e-01
     1.10838830e-01 -6.06436789e-01 -1.87873408e-01  9.47328210e-02
    -3.45149398e-01 -4.83709008e-01  1.64023861e-01 -2.13776603e-01
     8.16641469e-03  1.62171021e-01 -5.58848381e-02  2.98916012e-01]
   [ 1.77234456e-01  2.33731847e-02  2.12148055e-02 -1.43982008e-01
    -1.31746829e-01 -2.49491390e-02 -1.34276569e-01  6.79644272e-02
    -6.72079399e-02 -1.13698244e-01 -4.62248743e-01  1.88889503e-01
    -1.22633744e-02 -4.82799411e-01 -1.61990538e-01 -2.23233163e-01]]

  [[ 8.46245289e-02  2.90473923e-02  1.97273921e-02 -1.00675628e-01
    -1.38786361e-01  1.18800342e-01 -2.33563796e-01 -1.79714262e-01
     5.59320748e-02  1.66728139e-01 -1.84469238e-01  1.33054242e-01
    -3.64874564e-02 -2.02684641e-01  6.46277592e-02 -6.36911765e-02]
   [ 1.77909825e-02  2.09052756e-01 -7.63722658e-02 -1.15410462e-01
    -2.77853459e-01  1.86823279e-01  7.07255423e-01 -1.92766473e-01
    -1.74272195e-01  5.80900759e-02  3.21980566e-01 -1.64737180e-02
    -1.81883112e-01 -1.55927837e-01 -8.49774778e-02 -8.16555843e-02]
   [-5.06068133e-02 -1.46478981e-01 -1.44163221e-01  2.40787119e-01
     1.41625941e-01 -7.40044057e-01 -1.50619954e-01 -7.36626536e-02
    -4.49382067e-01 -4.26648796e-01  2.22418740e-01 -3.09375703e-01
    -4.45759557e-02  1.74314827e-01 -1.91042066e-01  3.95653844e-01]
   [-2.12839276e-01 -6.17222637e-02 -2.63249993e-01  2.80379385e-01
     2.84390748e-01 -5.26800573e-01 -1.63827971e-01  4.38859612e-02
    -4.02994245e-01 -1.90146059e-01  4.00133312e-01 -1.12596691e-01
     4.32473421e-02  2.14203179e-01 -6.91299960e-02  4.26127940e-01]
   [-1.29673421e-01 -3.29999365e-02 -1.90161869e-01  2.19158769e-01
     1.35095850e-01 -6.65548027e-01 -1.87974483e-01  1.33589357e-01
    -1.42174199e-01 -2.18785107e-01  2.40392372e-01 -3.05276990e-01
    -9.38324556e-02  1.12640269e-01 -5.69170825e-02  3.16015899e-01]
   [ 1.87232316e-01 -7.85872340e-02  6.60863891e-02 -2.35487208e-01
    -8.61744061e-02  1.76052034e-01  7.04661803e-03  8.73862416e-04
    -5.82780726e-02 -1.53068915e-01 -4.96621460e-01  6.40045479e-02
    -1.61885440e-01 -5.80600202e-01 -6.04484901e-02 -1.26322210e-01]]

  [[-2.07211431e-02 -9.52828899e-02 -5.07843867e-02 -1.29255410e-02
    -2.98008583e-02 -4.60311212e-02 -1.56723365e-01 -1.00096256e-01
     1.77697577e-02  6.43221438e-02 -1.74213693e-01  3.35631822e-03
    -5.04482202e-02 -2.38524899e-01 -1.72268692e-02 -1.47863194e-01]
   [-1.92859117e-02  2.06571907e-01 -2.69952357e-01 -1.73496619e-01
    -1.65281489e-01  2.47309104e-01  4.74761307e-01 -2.33097970e-01
     3.85290124e-02 -9.45399329e-02  2.19906747e-01  2.53958572e-02
    -1.95658971e-02 -3.10969323e-01 -5.84734511e-03 -4.05207425e-02]
   [-1.74247995e-01 -2.17703462e-01 -2.83688396e-01  2.11364999e-01
     2.03804210e-01 -7.06008911e-01 -1.43282413e-01 -2.73558386e-02
    -1.16305746e-01 -2.83503771e-01  1.95615962e-01 -3.46716613e-01
    -1.89614549e-01  1.37774780e-01 -1.54915405e-02  4.17781025e-01]
   [-7.43665099e-02 -9.47208181e-02 -1.28728822e-01  1.53098464e-01
     3.36696029e-01 -5.30713499e-01 -1.34330139e-01  6.06710985e-02
    -1.78474978e-01 -1.83611378e-01  2.35036939e-01 -2.37373367e-01
     3.71755585e-02  3.33486021e-01  9.74611491e-02  3.98823738e-01]
   [-1.09442398e-01 -3.07569210e-03 -1.61778077e-01  1.11581236e-01
     1.20980129e-01 -4.56606418e-01 -7.88332671e-02  1.54589005e-02
     2.00393423e-01  1.71133742e-01  1.76961347e-01 -1.83502004e-01
    -2.06017584e-01  7.68380836e-02 -2.58635413e-02  2.28450358e-01]
   [ 1.12374209e-01 -6.15229495e-02  1.75563425e-01 -4.52835225e-02
    -7.92414024e-02  1.64419919e-01 -6.86699385e-03 -5.36948778e-02
     7.86258131e-02 -5.81977852e-02 -2.94890612e-01  1.29605398e-01
    -1.44840986e-01 -4.45853382e-01 -1.51977995e-02 -8.67538452e-02]]

  [[ 1.14286333e-01  2.63808873e-02 -1.47391716e-02 -1.49532750e-01
    -1.89422127e-02 -7.31763691e-02 -1.84169114e-01 -9.33131576e-02
     9.53936502e-02  2.70005781e-02 -2.06337869e-01  1.17271267e-01
     8.98658037e-02 -1.06007770e-01 -6.69699088e-02 -1.96808130e-02]
   [-4.39265696e-03  1.92120492e-01 -2.47799352e-01 -1.63590387e-01
    -1.24386601e-01  7.64006823e-02  4.69676435e-01 -2.51671761e-01
     4.23095673e-02 -4.34996411e-02  1.75561607e-01  5.25499247e-02
    -3.09760496e-02 -1.70474559e-01 -4.13369536e-02 -1.09516256e-01]
   [-8.63426402e-02 -1.64255559e-01 -1.84098959e-01  1.82238191e-01
     1.96440563e-01 -4.53895420e-01 -1.58592552e-01 -1.62078157e-01
     2.47988440e-02 -2.71070693e-02  4.30216342e-02 -2.57070601e-01
    -1.60827026e-01  6.05664961e-02  1.08910454e-02  2.77864188e-01]
   [-1.28655881e-01 -7.76144639e-02 -7.05755204e-02  2.45945185e-01
     2.26445079e-01 -3.01233470e-01 -1.00279085e-01  2.14772716e-01
     9.17040780e-02  4.84204218e-02  1.55654609e-01 -2.53898680e-01
    -2.15279043e-01  2.60296881e-01 -3.21092531e-02  4.10210192e-01]
   [-1.26449719e-01 -1.13073684e-01 -3.24183136e-01  1.62284866e-01
     1.97898388e-01 -4.86646481e-02 -1.15997426e-01 -3.15106302e-01
     4.99488205e-01  2.67314464e-01  8.54290202e-02 -1.25247940e-01
     2.79096439e-02  6.51782975e-02  4.67613563e-02  1.63686588e-01]
   [ 1.09158985e-01 -5.33043407e-02  2.14952514e-01 -1.48988202e-01
    -1.80751219e-01 -1.11538339e-02  4.56824526e-02 -7.56060109e-02
    -3.20134982e-02 -9.67081934e-02 -3.20115566e-01  2.75680684e-02
    -1.07604913e-01 -4.00724500e-01 -1.78911880e-01 -1.91822127e-01]]]


 [[[ 1.38225496e-01 -9.98265892e-02  9.65532660e-02 -3.11087701e-03
    -6.44656718e-02  6.76004514e-02 -2.45678779e-02  1.24258704e-01
    -2.90526766e-02 -4.39888798e-03 -3.65254939e-01  4.56247739e-02
     5.77738248e-02 -1.40631542e-01  6.60403073e-02 -1.37164161e-01]
   [ 1.87530860e-01  4.05545741e-01 -6.55407086e-02 -1.03387110e-01
    -1.87069327e-01  1.51599810e-01  6.50254667e-01  2.51360759e-02
    -3.82151157e-02  1.66425422e-01  1.20313846e-01  2.95268353e-02
    -1.14849675e-02 -3.69548611e-02  1.67143628e-01 -2.26371914e-01]
   [ 1.09550571e-02 -1.98406905e-01 -3.34408820e-01  8.04986805e-02
     1.47506341e-01 -1.96231529e-01 -3.01137626e-01 -2.35634804e-01
     5.26256412e-02 -1.00768544e-01  1.31726205e-01 -2.00802073e-01
     7.93412924e-02  6.27808198e-02 -1.88798994e-01  5.35090780e-03]
   [-1.08497515e-01 -2.41178796e-01 -3.37216705e-01  7.15400279e-02
     1.43879920e-01 -7.70142376e-02 -3.75647515e-01 -2.83856124e-01
     3.08447540e-01  1.81358144e-01  2.63118804e-01  2.27186475e-02
     1.35613099e-01  2.29466945e-01  6.65701479e-02  1.82826430e-01]
   [-1.00114763e-01 -2.52080590e-01 -3.23426485e-01 -4.03860845e-02
     6.46825507e-02 -3.53580266e-01 -1.73336431e-01 -8.32696259e-02
    -1.89252704e-01 -2.60657936e-01  2.03436345e-01 -1.99449643e-01
    -1.34282947e-01 -3.70665803e-04 -7.48591796e-02  1.83989272e-01]
   [-6.33456931e-02  9.54946876e-02  2.43793055e-01 -1.09864675e-01
    -1.64919689e-01  9.92345065e-02 -4.37153056e-02 -8.24204832e-03
    -9.11008045e-02 -4.36971672e-02 -3.20414722e-01 -1.02711823e-02
    -6.20978065e-02 -3.42165142e-01 -2.07339957e-01 -3.75069417e-02]]

  [[ 2.68065818e-02 -2.24213162e-03  4.09362577e-02 -1.67763874e-01
    -7.31658284e-03  1.10232830e-01 -1.06286451e-01  6.18606731e-02
     1.38670757e-01  8.54854211e-02 -3.83459985e-01  6.98474050e-02
     4.78824638e-02 -2.14884207e-01 -1.00435533e-01 -2.17272818e-01]
   [ 2.28346407e-01  4.78882492e-01 -2.44388968e-01 -2.09016964e-01
    -3.04538250e-01  2.89135396e-01  5.58822453e-01 -4.48542796e-02
     2.77480576e-03  1.16426639e-01  3.25838715e-01 -1.06067779e-02
     4.16518152e-02 -1.09598249e-01  4.19676444e-03 -3.31155688e-01]
   [ 2.53368579e-02 -3.00891131e-01 -4.76137817e-01 -3.78622748e-02
     1.00694448e-01 -3.59896243e-01 -3.26271594e-01 -3.24896753e-01
    -3.57461989e-01 -3.43203932e-01  1.44248441e-01 -1.69453830e-01
    -4.64131944e-02  4.86801043e-02 -8.97416621e-02  1.86181515e-01]
   [-9.06833187e-02 -1.59552172e-01 -5.00115693e-01  1.81136951e-01
     1.75570264e-01 -3.00679922e-01 -2.86961526e-01 -2.03680307e-01
     6.27507791e-02  4.46908474e-02  3.44249517e-01 -2.02873558e-01
     2.04875305e-01  3.47915083e-01  3.82546186e-02  2.38412231e-01]
   [-1.40376359e-01 -1.62772402e-01 -2.94181168e-01  1.48721680e-01
     1.03390403e-01 -5.30097008e-01 -2.50276119e-01 -2.36564055e-01
    -2.77991772e-01 -2.89569080e-01  1.76165462e-01 -1.77894831e-01
    -8.10082722e-03  6.58625923e-03 -1.07221946e-01  1.95692867e-01]
   [-5.32800294e-02  7.18243197e-02  2.37330198e-01 -1.40058517e-01
    -4.65156324e-02  1.87439770e-02  1.49355054e-01  4.62979265e-02
     6.77800253e-02 -1.24625914e-01 -2.90214837e-01 -3.64990048e-02
     5.42448759e-02 -4.53320652e-01 -1.58285946e-01  7.37332134e-03]]

  [[ 6.44786358e-02  6.90668728e-03  5.46394847e-02 -1.69404224e-01
    -1.57089710e-01  8.71096328e-02 -1.12059608e-01  8.38214010e-02
     1.96267202e-01  1.52359679e-01 -1.84085399e-01  8.88321102e-02
    -4.01450247e-02 -2.40392044e-01  2.68503418e-03 -9.62470323e-02]
   [ 9.63880420e-02  4.61129218e-01 -2.11264431e-01 -2.57386744e-01
    -2.69710392e-01  1.28598422e-01  5.88127553e-01 -1.27436131e-01
     2.07941178e-02  1.65581144e-02  1.60566717e-01  8.87151286e-02
     4.56734039e-02 -9.96060669e-04 -3.08678835e-03 -2.73801059e-01]
   [ 4.41303775e-02 -3.18340331e-01 -4.87023741e-01  8.14891458e-02
     1.90357059e-01 -5.92703879e-01 -3.28313679e-01 -2.48466060e-01
    -3.07084292e-01 -3.39391857e-01  1.43235251e-01 -1.15014888e-01
    -1.19237915e-01  1.22132584e-01 -1.63265690e-02  1.70559153e-01]
   [-9.50970352e-02 -1.85505718e-01 -3.32344860e-01  2.35491827e-01
     3.24305743e-01 -4.68043745e-01 -3.09477508e-01 -7.30286986e-02
    -2.23955899e-01 -1.69537142e-01  3.60683620e-01 -1.28286093e-01
     1.75237015e-01  2.73161024e-01 -8.30257833e-02  1.31643564e-01]
   [-6.33610338e-02 -3.10000420e-01 -4.00885552e-01  1.42046750e-01
     3.64927463e-02 -5.78153968e-01 -1.97719887e-01 -1.85932159e-01
    -7.78840929e-02 -1.74091935e-01  5.77682219e-02 -2.00922564e-01
    -4.80859876e-02  1.03386231e-01  4.86306213e-02  9.25379694e-02]
   [ 8.91018957e-02  6.23374805e-02  2.27954581e-01 -1.63482666e-01
    -1.66343272e-01  1.80944994e-01  1.01566777e-01  1.02419898e-01
     2.09069252e-02 -1.41182899e-01 -2.89726168e-01  2.66066976e-02
    -5.88308014e-02 -3.93742591e-01 -2.39846915e-01  1.87468342e-02]]

  [[ 1.13965772e-01  7.30045838e-03  1.00585081e-01  2.57770047e-02
    -6.47839382e-02  1.25392139e-01 -1.40995502e-01 -3.36988606e-02
     4.57497947e-02 -5.16276360e-02 -2.26372451e-01  8.81801322e-02
     1.45905629e-01 -2.29787573e-01  3.36464718e-02 -1.98386252e-01]
   [ 1.28715232e-01  3.79405051e-01 -2.50691026e-01 -1.07543826e-01
    -3.36750716e-01  2.61917055e-01  4.87685353e-01 -1.21255718e-01
    -8.47347081e-03 -1.04500189e-01  3.13002139e-01  1.77253127e-01
    -7.49069154e-02  1.82202272e-02 -7.24966228e-02 -3.37453395e-01]
   [-7.83041939e-02 -3.00899804e-01 -5.26335359e-01  1.63841322e-01
     9.34542641e-02 -5.72229624e-01 -3.29321533e-01 -2.33980298e-01
    -2.15708584e-01 -1.37160674e-01  4.18437757e-02 -1.27459317e-01
    -6.57545179e-02  1.21716060e-01 -8.74244720e-02  1.29311830e-01]
   [-1.80536951e-03 -1.79330111e-01 -4.15885389e-01  6.67312667e-02
     2.61247128e-01 -5.37029147e-01 -2.17147693e-01 -4.99883257e-02
    -1.29268169e-01 -2.41996333e-01  3.35252464e-01 -3.17059197e-02
    -3.29835936e-02  2.21240908e-01  8.61606821e-02  2.08568648e-01]
   [ 5.50751239e-02 -1.63984343e-01 -5.16652465e-01  1.09764814e-01
     1.29471049e-01 -2.36897498e-01 -3.80376160e-01 -1.17373399e-01
     2.55938083e-01 -3.45466286e-03  1.52962357e-01 -1.72521338e-01
     1.31261097e-02  5.93558773e-02  3.84264216e-02  5.00472039e-02]
   [-3.09898145e-02  4.97949831e-02  2.60895133e-01 -8.32622200e-02
    -1.59650724e-02  7.99137652e-02  1.52134150e-01  1.07583568e-01
     2.50524040e-02 -1.11673072e-01 -4.05742079e-01 -5.52261993e-02
    -1.17131010e-01 -3.02299410e-01 -2.45955423e-01  2.86881375e-04]]

  [[-7.82301873e-02 -7.60662649e-03  1.90339521e-01 -1.03105148e-02
    -1.53650254e-01 -3.47688235e-02 -1.96462423e-02 -3.39997523e-02
     6.99329749e-02 -1.24546967e-01 -1.65647984e-01  1.13279901e-01
     3.32890190e-02 -8.63983668e-03 -4.38027792e-02 -3.05057261e-02]
   [ 1.44636184e-01  4.87567097e-01 -1.92108005e-01 -7.30058700e-02
    -2.99058110e-01  1.51832476e-01  4.52815473e-01 -2.81984240e-01
     7.83809796e-02  3.48044410e-02  1.07145645e-01  1.43396169e-01
    -1.36208534e-02 -1.03606686e-01  1.24173194e-01 -3.16079944e-01]
   [ 5.11509627e-02 -2.60315239e-01 -5.44663191e-01 -1.70980338e-02
     9.40219015e-02 -3.33111286e-01 -3.77785355e-01 -2.60938138e-01
     1.44586712e-01  7.29828179e-02  3.49310897e-02 -2.23332435e-01
    -1.03752926e-01  4.14033309e-02  1.05591929e-02  1.53814748e-01]
   [ 2.77673118e-02 -2.12675288e-01 -3.83004665e-01  2.08935127e-01
     2.14544088e-01 -3.54305953e-01 -2.27138311e-01 -1.23070925e-01
     1.69800326e-01  1.22134956e-02  2.88053244e-01 -2.38259032e-01
    -1.27972186e-01  1.52152970e-01  1.21607594e-01  1.98464647e-01]
   [ 7.81348869e-02 -1.57275692e-01 -5.14899909e-01  9.19811428e-02
     1.54865518e-01 -1.64991096e-01 -3.54358524e-01 -3.53941739e-01
     4.57764894e-01  2.29798421e-01  1.84412375e-01 -3.79189253e-02
    -5.51245324e-02 -2.88475156e-02  1.15915418e-01 -4.06197459e-02]
   [-8.02169666e-02  1.07362056e-02  2.79200166e-01 -2.83409609e-04
    -1.29705250e-01  1.57309785e-01  6.13210872e-02  1.69464685e-02
     6.32420601e-03 -1.39058471e-01 -2.54114896e-01 -7.11549893e-02
    -2.84227785e-02 -3.66148084e-01 -1.92478895e-01  6.80708289e-02]]]]
le_net5/conv2d_1/bias:0
(16,)
[ 0.04700234 -0.10044423 -0.08949323 -0.05446819 -0.05449681 -0.04700542
 -0.0695053  -0.08212531  0.05202688  0.0261991  -0.06584185  0.04969545
  0.16738924  0.0143974   0.00607679 -0.07791463]
le_net5/dense/kernel:0
(400, 120)
[[ 5.15804365e-02  1.51399136e-01 -4.70945291e-04 -1.23803727e-01
   8.40368420e-02 -1.50527224e-01  3.31581794e-02  2.20044807e-01
  -1.21275574e-01  2.64229178e-01 -6.34092791e-03 -3.22244018e-01
  -6.15403116e-01  3.22093785e-01  8.77913684e-02  2.36493066e-01
   7.30235279e-02 -4.01080446e-03  1.63697377e-01  7.31735975e-02
  -2.88437337e-01  4.15507611e-03 -1.24470852e-02 -7.30540454e-02
  -1.01295121e-01  4.52205926e-01  5.34859523e-02  3.43050152e-01
  -3.42332840e-01 -3.04377056e-03  3.35343033e-01  3.39876741e-01
  -3.19116451e-02 -2.79204071e-01 -7.39559010e-02 -3.30867320e-01
   2.47639447e-01  7.07284957e-02  2.27864936e-01 -1.56977132e-01
  -1.76803485e-01 -4.42930639e-01 -1.09133169e-01  2.27866024e-01
  -3.07411730e-01 -2.45857105e-01 -5.28299399e-02 -5.72928488e-01
  -3.37404534e-02 -5.51005006e-01  1.77348316e-01  1.71291351e-01
  -3.73137951e-01 -5.07621244e-02 -1.55539110e-01  6.22115517e-03
  -1.89786926e-01 -1.30616710e-01  2.66538411e-01 -9.00042653e-02
  -1.64031591e-02  2.51356840e-01  1.64712802e-01  6.95677400e-02
   1.42891303e-01  1.29747793e-01  4.17530760e-02  3.09763420e-02
  -7.60116354e-02  1.24152703e-02  2.28899643e-01 -8.85408372e-02
   2.70082384e-01  8.62089992e-02  1.05570488e-01 -1.78875864e-01
  -7.67875463e-02  7.01142251e-02 -6.44200519e-02 -2.34626055e-01
   2.93339461e-01 -5.35866208e-02  8.54738653e-02 -7.49991601e-03
  -3.67006570e-01  3.79454464e-01  4.63350117e-03  1.45582512e-01
  -4.68237728e-01  2.46513356e-03  7.27148727e-02 -7.09773183e-01
  -1.45501316e-01  1.34822309e-01  3.78882550e-02 -9.39484313e-02
  -2.17979267e-01  1.27768079e-02  6.47904128e-02  8.45180899e-02
   7.15290457e-02 -3.12773883e-01  1.17527127e-01  2.56129652e-01
   1.64428458e-01  2.85121709e-01 -9.75235403e-02  2.34832689e-01
  -1.31133556e-01  4.54441532e-02 -1.75659493e-01 -6.25510588e-02
  -6.44492984e-01  2.75216531e-02 -1.31409600e-01  4.46538348e-03
  -5.20931125e-01  1.29956633e-01  3.74255657e-01 -7.50164986e-02]
 [-3.67840886e-01  1.41825853e-03  1.26755223e-01  2.17103317e-01
  -2.51546115e-01  7.30597153e-02 -3.02410811e-01  4.89386022e-02
   1.22799285e-01 -4.46901053e-01 -3.47500116e-01  7.84130469e-02
   2.18586512e-02 -5.20441055e-01 -9.11004618e-02 -1.79027826e-01
   2.06535921e-01  4.53887463e-01 -3.33892345e-01 -4.25276399e-01
  -3.28223228e-01 -2.17212498e-01 -1.27371490e-01  6.88899383e-02
   5.57247996e-02 -4.28824186e-01 -1.10471092e-01 -7.11737499e-02
   6.23451546e-02 -2.00148784e-02 -3.67787838e-01 -4.06967193e-01
  -1.53544977e-01 -1.53399169e-01  5.89031987e-02  4.75439548e-01
  -3.99259418e-01 -4.21436131e-01 -7.04412833e-02 -1.13621794e-01
   2.23426878e-01  3.32207009e-02  9.92224216e-02 -8.68461728e-02
   3.36693704e-01  3.04504126e-01  1.60145760e-01  1.06735341e-01
   3.16814363e-01  1.93239555e-01  2.77422294e-02 -4.03632104e-01
   3.00351202e-01  1.68206841e-01 -4.71859068e-01 -2.82315701e-01
   7.07181767e-02 -1.19809136e-01 -3.12167734e-01  3.37692916e-01
   1.80174157e-01 -3.58124971e-02 -1.62696391e-02 -1.45885631e-01
   3.40399086e-01 -2.32458010e-01  1.64596245e-01 -2.55390048e-01
   5.85311055e-02 -5.45116998e-02 -1.90870777e-01  4.54201043e-01
   1.22427866e-02 -6.10724390e-01 -3.58033895e-01  3.32865149e-01
  -2.88681276e-02 -4.67908889e-01 -2.17134848e-01  9.30082425e-02
  -2.98405439e-01 -1.13029137e-01  1.42014742e-01  1.60748929e-01
  -1.21239368e-02  6.88149631e-02 -1.26085296e-01 -6.03980348e-02
   6.72317073e-02 -1.01998113e-02 -3.12778950e-01 -6.16736040e-02
  -9.90812257e-02 -8.51071104e-02 -2.60815442e-01 -3.15276146e-01
  -2.02170745e-01 -1.34826377e-01 -4.67403710e-01 -2.98874497e-01
  -3.61026555e-01  4.45961654e-01 -1.04845896e-01 -2.85026222e-01
  -1.60769194e-01 -2.05883399e-01  2.87397765e-02 -2.45189026e-01
   2.72050917e-01  1.94182828e-01 -2.54639924e-01  2.08362192e-01
   2.35250026e-01 -2.21432537e-01  2.73204390e-02 -2.48904563e-02
   2.63584256e-01  2.77433489e-02 -3.62329155e-01 -4.14794266e-01]
 [-5.32205403e-01  8.65244716e-02 -1.25818206e-02  1.16976863e-02
  -5.01897991e-01 -1.35972202e-01 -5.52601293e-02 -8.87164325e-02
  -9.43826661e-02 -2.61849552e-01  8.08764547e-02  3.30181777e-01
   8.09063111e-03 -2.88631588e-01 -1.14588283e-01  1.58045683e-02
   3.44398916e-01  4.36621010e-01 -1.92564160e-01 -2.47495696e-01
  -6.48089126e-02 -9.56940651e-02 -2.57374346e-01  3.90449315e-02
   2.42487833e-01 -1.09377712e-01 -5.17305769e-02 -7.86927044e-02
   2.74520908e-02 -1.24446079e-01  1.59179032e-01 -1.41626194e-01
  -1.46487832e-01 -1.00217544e-01  3.04245576e-02  1.27969295e-01
  -1.23385906e-01 -3.92659664e-01 -2.89898008e-01 -1.34102285e-01
   1.28303260e-01 -1.12131216e-01  1.59656629e-01 -2.19570145e-01
   8.98342207e-02  5.44860482e-01  3.86822760e-01 -1.06625639e-01
  -2.32644901e-02 -1.20601682e-02 -2.30674520e-01 -1.79125622e-01
   3.08831841e-01 -7.06602866e-03  1.03016168e-01  1.80709288e-02
   2.28064761e-01 -2.64131278e-01 -2.24924356e-01  3.38679016e-01
  -1.34056553e-01 -1.19722329e-01 -1.43593997e-01 -2.32165262e-01
   1.76059723e-01  2.75025338e-01 -1.09794056e-02 -3.00374359e-01
   3.45320106e-02  1.01104766e-01 -1.62484810e-01  2.65552878e-01
   1.14881605e-01 -5.16852975e-01 -6.33480176e-02  1.73467919e-01
   2.04488665e-01 -1.84122279e-01 -1.59051672e-01  2.43070945e-01
  -2.46613204e-01 -2.93025170e-02  1.84682056e-01  1.41868323e-01
  -6.27524406e-02 -2.43650228e-01  1.87133327e-01  5.00272810e-02
   2.94726975e-02 -1.24041609e-01 -1.71327926e-02  7.96827488e-03
  -3.56276959e-01  8.66372213e-02  2.34407857e-01  4.14610580e-02
   1.84868500e-02 -1.03465103e-01 -4.05214101e-01 -3.85533482e-01
  -2.01637045e-01  1.50803849e-01 -4.53344323e-02  1.28882363e-01
  -1.53366268e-01 -6.08502738e-02  1.28027752e-01 -7.36905560e-02
   2.20258430e-01  7.32695460e-02 -7.32661560e-02  2.32610852e-01
   7.87351429e-02  4.90795970e-02 -6.18290752e-02  3.43387634e-01
   2.39129633e-01  3.03952336e-01 -9.93945301e-02 -2.74028033e-02]
 [-3.17386150e-01 -1.85949169e-02  2.85321534e-01  1.29961878e-01
  -1.67604238e-01  1.15446806e-01 -2.22087771e-01 -2.19334275e-01
   5.46827950e-02 -5.13277292e-01 -2.77148217e-01  1.36697054e-01
  -1.12499138e-02 -4.32940096e-01  7.01480061e-02 -1.05953373e-01
   9.73077044e-02  1.61613747e-01 -5.77949047e-01  1.48792742e-02
   2.94231027e-02 -5.60315698e-02  3.93247381e-02  5.96741103e-02
   3.47839892e-02 -2.60545075e-01 -3.95189673e-01 -1.11129992e-01
   9.17516798e-02  2.06198394e-02 -5.60589544e-02 -3.06437872e-02
  -2.29209632e-01  1.61845744e-01  1.77326366e-01  3.10140163e-01
  -1.82775497e-01 -3.80850673e-01 -2.10125998e-01  1.53767005e-01
   1.07938670e-01  3.67155783e-02  1.69870064e-01 -6.35870621e-02
   2.54594892e-01  1.30105197e-01  1.11006163e-02  1.09716885e-01
   1.32508337e-01  1.64016694e-01  4.26728874e-02 -3.52393568e-01
   2.33271167e-01  2.81189885e-02 -6.55784924e-03  1.08745374e-01
   1.97775617e-01  1.76495999e-01 -3.52431297e-01 -8.49444047e-02
   4.34837602e-02 -4.86872531e-02 -3.20075631e-01 -6.39872849e-01
   1.49823558e-02  2.75323610e-03  2.25301176e-01 -3.13309968e-01
   7.84143135e-02 -1.45330071e-03 -4.76759195e-01  1.98262393e-01
  -6.62445799e-02 -3.08266580e-01 -4.18235026e-02  1.06933147e-01
  -1.82981361e-02 -2.62169778e-01 -7.95458481e-02  4.04936194e-01
  -4.24757391e-01 -8.19313005e-02 -1.26567334e-01  1.06735460e-01
   1.43989176e-01 -1.00221783e-01 -8.37953165e-02 -1.17981657e-01
   1.08635118e-02  1.33677185e-01 -4.14775044e-01  1.80004880e-01
  -7.19845742e-02  6.95375428e-02  9.57715437e-02  1.38236597e-01
  -4.83171232e-02  1.11423485e-01 -3.49312812e-01 -3.85679752e-01
  -4.43362296e-02  2.88934976e-01  1.62691865e-02 -2.09954992e-01
  -4.16833721e-02 -1.53552994e-01  1.20964326e-01 -1.92781314e-01
   1.41492009e-01  5.17716333e-02 -2.52743941e-02  3.92555803e-01
   2.46488536e-03 -2.92033643e-01 -1.83640234e-03 -1.59620587e-02
   2.24397942e-01 -1.56419560e-01 -2.14698419e-01 -4.52757217e-02]
 [-2.56196678e-01 -1.42421931e-01  9.07968804e-02  5.64432479e-02
  -6.02562837e-02  5.17615862e-02 -1.39399171e-01 -1.48371622e-01
  -1.92367155e-02 -5.85394263e-01 -2.01038316e-01  1.90504745e-01
  -2.99070068e-02 -3.50276530e-01  5.46528166e-03 -5.29073663e-02
   3.82470414e-02  2.25411460e-01 -6.64673209e-01 -5.21025248e-02
   5.95299862e-02 -5.89336790e-02 -8.05612579e-02  9.23012644e-02
   9.86234471e-02 -2.23239675e-01 -3.10612291e-01 -4.39550020e-02
   1.48270592e-01  4.46630120e-02 -3.69805805e-02 -8.02317485e-02
  -1.96486220e-01  6.81816041e-02  1.37059644e-01  2.76444137e-01
  -1.04022801e-01 -1.89425573e-01 -1.57062590e-01  1.23260826e-01
   1.08425304e-01 -2.41546743e-02  9.13726166e-02 -1.55575305e-01
   1.00516446e-01  1.14271961e-01  4.19216268e-02  1.50890335e-01
   2.13258527e-02  8.85632113e-02 -1.13899581e-01 -3.07453752e-01
   3.29796880e-01 -7.23274425e-02 -1.04375882e-02  1.81173056e-01
   1.52933925e-01  9.05502290e-02 -2.93483138e-01 -8.16186294e-02
  -6.91855177e-02 -6.57257065e-02 -3.90884876e-01 -5.56521654e-01
  -1.40048014e-02  1.06506735e-01  1.79053664e-01 -3.25020045e-01
   1.94014311e-02 -4.26232740e-02 -4.60509837e-01  9.07975435e-02
  -9.41556022e-02 -2.06547961e-01 -1.14189990e-01  1.15201183e-01
   8.53013620e-02 -1.41592085e-01 -1.01824708e-01  2.17584386e-01
  -3.19563687e-01 -3.47582959e-02 -1.19564742e-01  1.41194373e-01
   2.21467480e-01 -1.89023212e-01 -1.27107218e-01 -1.39271423e-01
   5.30646462e-03  1.06638312e-01 -4.00471807e-01  1.76759198e-01
  -1.19440094e-01  1.66342221e-02  1.46917738e-02  8.83950442e-02
  -4.81813215e-02  2.90228929e-02 -4.20410872e-01 -3.90514255e-01
  -9.15410444e-02  2.19319135e-01 -5.29222302e-02 -1.35455936e-01
  -1.55571863e-01 -1.31512329e-01  7.80837983e-02 -2.38973737e-01
   2.06772909e-01  4.63917218e-02  1.52717248e-01  2.98141718e-01
   1.09632704e-02 -1.95822135e-01  1.38745889e-01 -3.49346474e-02
   2.04994157e-01 -9.05991197e-02 -9.84134674e-02  3.30312997e-02]
 [ 5.78627503e-03  1.83136046e-01  1.28721252e-01 -2.13730000e-02
   6.53684838e-03 -1.92311019e-01 -4.94956155e-04  2.62749046e-01
  -1.58217520e-01  1.88389048e-01 -1.74965084e-01 -1.70206800e-01
  -2.27934316e-01 -4.47313860e-02 -1.31001174e-01 -6.77262247e-02
  -3.06127459e-01 -1.96110293e-01  2.08551660e-01 -5.27573109e-01
  -1.10394314e-01  2.80726194e-01  7.49964407e-03  7.72131458e-02
  -6.75776750e-02  3.89734864e-01 -9.10617188e-02 -3.89018282e-02
   5.99758886e-03  8.64927024e-02  1.97638705e-01  1.92674801e-01
  -2.13415027e-02 -2.83058643e-01 -6.59284275e-03 -3.21971685e-01
   1.32020295e-01  2.85901520e-02 -9.16802958e-02 -3.01746786e-01
  -1.44390941e-01 -2.60117859e-01 -1.41314685e-01  2.91606069e-01
   7.57241156e-03 -7.71132037e-02 -9.74616930e-02 -2.45159388e-01
   1.24772467e-01 -1.84497431e-01  1.31350487e-01 -1.06145360e-01
  -3.54461186e-02  7.69463480e-02 -1.47407204e-01 -3.59946162e-01
  -2.58869529e-01 -8.41512010e-02 -5.56054972e-02 -1.11794434e-01
  -2.69863941e-02 -2.65710037e-02 -1.14103705e-01  2.05380008e-01
   3.98385972e-02 -2.11712122e-01  9.54808667e-02 -4.97026108e-02
   2.25701317e-01 -2.82227933e-01  2.28042960e-01 -2.11709253e-02
  -1.75010785e-02  5.42737590e-03 -5.11233546e-02 -6.13588654e-03
  -1.87180191e-01 -9.20738876e-02  2.27691546e-01 -1.82384457e-02
  -1.41876973e-02 -1.02778219e-01 -2.58274842e-02  5.76065741e-02
  -1.80646360e-01  1.44305781e-01  9.27883685e-02 -1.07650153e-01
  -7.80652985e-02 -1.12282401e-02  6.51123747e-02 -3.05023462e-01
  -7.45692616e-03  2.30222225e-01 -1.22862972e-01 -4.26786356e-02
  -2.25506544e-01  3.21003348e-01  2.96750605e-01 -8.73480365e-03
   2.33872652e-01 -6.03459030e-02  6.58718944e-02  2.01014251e-01
   2.24872753e-01 -2.42780484e-02  5.42421900e-02  5.25376014e-02
  -1.33321760e-02  2.08159611e-01 -1.10089339e-01  1.04611345e-01
  -1.17591321e-01 -5.39412424e-02  1.30622372e-01 -5.60963973e-02
  -1.97849825e-01 -9.96057242e-02  1.85307339e-01  3.23711112e-02]
 [-2.30744883e-01  9.48812738e-02  4.82737795e-02  9.19935927e-02
   6.68522269e-02 -1.01656608e-01 -3.90883565e-01 -1.22043975e-01
  -1.83127537e-01 -1.37394264e-01 -1.35430666e-02  1.39818758e-01
   6.86365664e-02 -2.63699830e-01 -1.25898585e-01 -3.77788872e-01
  -9.71871428e-03 -8.33104029e-02 -1.99247822e-01  1.53950572e-01
  -2.53336527e-03 -5.87605722e-02 -2.73783720e-04  1.04562186e-01
  -4.75583747e-02 -3.33885103e-01  1.52697295e-01 -2.70388514e-01
   1.64017249e-02 -1.06881335e-01 -3.77750807e-02 -2.35253111e-01
  -7.70494416e-02 -6.52318448e-02  2.88494110e-01  1.45726139e-03
  -1.45167693e-01 -1.48593321e-01 -2.22701326e-01 -1.53620288e-01
   6.19048513e-02 -1.39780641e-02 -1.61840655e-02 -3.83275412e-02
   3.57186228e-01  1.02780767e-01  6.12941422e-02  3.16502117e-02
   1.60360858e-02 -1.03947476e-01  7.05034733e-02 -1.26675844e-01
   1.26717970e-01  2.49727033e-02  5.98670058e-02  1.99570553e-03
   1.60184458e-01 -3.46328467e-02 -3.81834298e-01 -1.66915461e-01
  -7.80585280e-04  5.99757545e-02 -1.21772431e-01 -4.35307398e-02
   2.78196096e-01  9.68357995e-02  2.04483852e-01 -1.49943709e-01
  -1.35648968e-02  1.91925317e-02  8.53483304e-02  8.63741040e-02
  -1.45776480e-01 -2.04459608e-01  2.09557042e-02 -3.28244716e-02
  -1.52047146e-02 -4.61430363e-02  3.56543511e-02  1.21757902e-01
  -4.37130243e-01 -6.98118806e-02 -5.08637242e-02  2.20148683e-01
   1.25964642e-01 -1.39420465e-01  7.25959335e-03 -3.17038819e-02
   7.69644231e-02  1.19028836e-01  1.40615344e-01  2.86577200e-03
  -1.60451513e-02  3.73393334e-02  1.61741525e-01  6.69330284e-02
   3.31201181e-02  1.30735800e-01  3.72960567e-02 -2.66087472e-01
   1.72166359e-02  2.74644613e-01  1.97624698e-01  2.24781036e-01
  -6.56438544e-02  1.23766109e-01  5.94987394e-03 -2.50446230e-01
   2.65610307e-01 -1.94098979e-01 -7.52100209e-03  1.53893113e-01
  -1.00033171e-01 -3.45739722e-03  4.70452532e-02  1.42040491e-01
   1.87418595e-01 -4.64788564e-02 -3.29666585e-01 -3.64058055e-02]
 [-5.74138939e-01  4.05814819e-04  2.68362373e-01  5.95008694e-02
  -5.34710646e-01  7.44279753e-03 -2.60585755e-01 -1.30614251e-01
  -6.06534556e-02 -3.19455236e-01  6.54370710e-02 -8.41667783e-03
  -3.54762599e-02 -2.32387081e-01 -1.09631196e-01 -6.76803589e-02
   1.40871689e-01  4.30633008e-01 -3.73946428e-01 -2.69274145e-01
  -2.64677703e-01 -4.77013253e-02 -2.80931264e-01  6.87266961e-02
   1.11253999e-01 -1.13100633e-02 -6.54816777e-02 -4.04006429e-02
   1.50189204e-02 -1.18952975e-01  2.51072552e-02  2.64383405e-02
  -5.47038354e-02 -1.49008289e-01 -5.02160005e-02  1.62499160e-01
  -5.89493550e-02 -5.12525141e-01 -3.03964645e-01 -2.41930917e-01
   1.28080040e-01 -1.85808390e-01  1.08552463e-02 -1.20092884e-01
   2.31685013e-01  4.22453851e-01  2.49453455e-01 -1.09557053e-02
   2.47243363e-02 -3.71318869e-02  5.23569956e-02 -2.14984119e-01
   2.25780994e-01  5.91920363e-03 -7.67940655e-03 -8.52475911e-02
   2.13070422e-01  4.09959145e-02 -4.45227325e-01  2.31327459e-01
  -1.32976264e-01  4.12335619e-02 -3.14445853e-01 -2.80103385e-01
   2.24650189e-01  2.27754027e-01  1.18483707e-01 -2.73696065e-01
   1.13056034e-01 -1.25599340e-01  2.05236161e-03  2.41482094e-01
   7.41966069e-02 -5.64788938e-01 -2.05678050e-03  3.40413272e-01
   8.23710039e-02 -2.16953725e-01 -1.94492564e-01  2.22832695e-01
  -3.27315211e-01  1.18943490e-02  8.14022347e-02  2.57724732e-01
   7.44542181e-02 -1.39817283e-01 -3.98716740e-02 -1.31340116e-01
   6.19136840e-02  2.40962002e-02 -9.15105194e-02 -1.95998419e-02
  -1.85490653e-01  2.57249102e-02  2.26216689e-01  4.80737388e-02
  -1.97943941e-01 -1.38572857e-01 -2.90607095e-01 -4.38838631e-01
  -1.50468806e-02  1.62098661e-01  1.50394842e-01  8.61399099e-02
   1.07768038e-02 -3.90481129e-02  1.92096457e-01 -1.07357621e-01
   3.05472672e-01  2.64198005e-01 -1.25463203e-01  2.86866307e-01
   7.23887160e-02 -6.11700863e-02  9.92387608e-02  1.27324671e-01
   5.19902036e-02  8.84035155e-02 -9.30362716e-02 -1.37780234e-01]
 [-1.10218219e-01  1.09852269e-01  1.77595347e-01  2.60419361e-02
  -1.68511868e-01  7.02286661e-02  1.79508716e-01  4.70051736e-01
  -3.42297107e-01 -6.70011491e-02 -4.98112068e-02 -1.06037542e-01
  -6.89038694e-01  1.69411153e-01 -4.40934189e-02  2.22511500e-01
   5.58391958e-02  1.51487187e-01  8.86295736e-03 -6.33895934e-01
  -4.01532501e-01  6.05216399e-02 -5.04934080e-02 -1.25064641e-01
  -9.45762172e-02  4.20599937e-01 -1.19231887e-01  1.37652054e-01
  -1.70600682e-01  1.56599656e-02  2.06600145e-01  3.03092510e-01
  -1.89302154e-02 -4.12471235e-01 -2.24613398e-01 -1.87143967e-01
   2.26804271e-01 -1.61791086e-01  8.81050974e-02 -3.36029500e-01
  -9.98840630e-02 -6.47354126e-01 -1.02673024e-01  3.19663554e-01
  -3.33540976e-01 -5.18323444e-02 -9.55870748e-02 -5.78853488e-01
   3.55560213e-01 -2.94118345e-01  3.36948454e-01  7.49396160e-02
  -1.02647923e-01  2.00574175e-01 -4.36170012e-01 -4.27928180e-01
  -2.58405775e-01 -7.38621205e-02  2.08533466e-01 -8.55081603e-02
   2.33985811e-01  1.24968782e-01  4.09272015e-02 -8.28635599e-03
   1.88363697e-02 -3.18469822e-01  1.08276486e-01 -1.33159727e-01
   2.94114426e-02 -3.51455957e-01 -2.24332721e-03  6.62287325e-02
   1.32508487e-01  2.11511776e-02 -8.89021829e-02 -1.83551356e-01
  -4.75905277e-02 -3.80563512e-02 -1.21658430e-01 -1.46359444e-01
   1.28556013e-01 -1.18244523e-02  1.04924291e-01 -7.68692279e-03
  -1.76696360e-01  2.92745560e-01  1.35637760e-01  1.89802665e-02
  -4.19439375e-01 -9.05821323e-02 -1.24634042e-01 -5.84899545e-01
  -4.59026664e-01  1.37223184e-01 -1.10001460e-01 -1.03084914e-01
  -3.78558904e-01  2.60104872e-02 -8.05283114e-02  2.96397344e-03
  -1.55751526e-01 -2.92899609e-01  8.88443962e-02  7.49075115e-02
   3.33091408e-01 -4.13187444e-02 -1.96794316e-01  4.30546343e-01
  -1.32903010e-01  1.01217382e-01 -1.93535939e-01 -1.36216134e-02
  -4.29380655e-01  4.40872833e-02 -2.03411415e-01 -6.69423342e-02
  -4.54560131e-01  8.18005502e-02  5.07823110e-01 -1.63097531e-01]
 [-1.44819438e-03  2.70298757e-02  1.26394987e-01 -8.40297639e-02
  -4.89308797e-02 -1.29130155e-01  1.18837737e-01  3.28338802e-01
  -2.70284623e-01  1.47477249e-02 -4.42188941e-02 -3.79568726e-01
  -6.32822454e-01  2.04248309e-01 -1.89530462e-01  2.54813284e-01
  -1.03694946e-01  3.48803438e-02  2.21581593e-01 -3.99837643e-01
  -3.48475635e-01  2.17669144e-01 -4.97820647e-03 -3.90113294e-02
  -3.01167935e-01  4.51928049e-01  3.05033382e-02  2.56366342e-01
  -2.15484217e-01  9.59817693e-02  2.14146703e-01  3.85877162e-01
   3.21998857e-02 -4.07774478e-01 -1.46123260e-01 -3.26273859e-01
   1.99192762e-01  3.67500372e-02 -3.79309654e-02 -3.26952130e-01
   9.87168029e-03 -4.66727823e-01 -1.61190316e-01  3.17383409e-01
  -2.40739137e-01 -2.81987399e-01  7.76237845e-02 -5.57533622e-01
   1.10189855e-01 -5.41960716e-01  2.57243782e-01  6.67570457e-02
  -4.63068597e-02 -4.74853106e-02 -2.54876494e-01 -3.35006326e-01
  -2.21147373e-01 -1.95429802e-01  2.20957726e-01  3.38895693e-02
   2.22584922e-02  4.87107299e-02  1.41788185e-01  2.01076448e-01
   2.07892865e-01 -3.21931653e-02 -1.10527799e-02 -9.96294320e-02
   8.91039521e-02 -1.71910644e-01  1.14387311e-01  1.13547854e-01
   2.56241381e-01  1.47773623e-01  2.76666060e-02 -1.03943855e-01
  -1.97760716e-01  4.36989889e-02 -4.79682982e-02 -8.15002769e-02
   1.32000983e-01 -2.11088240e-01 -4.95152622e-02 -1.54453397e-01
  -4.02855635e-01  2.83801854e-01  2.09606260e-01 -5.02184592e-02
  -5.38326800e-01 -2.49573234e-02  1.11682124e-01 -4.54459250e-01
  -3.52141917e-01  1.94045734e-02 -4.04332392e-02  2.15398408e-02
  -3.67471963e-01  9.56513733e-02  2.04129621e-01 -9.69805941e-03
  -4.88052182e-02 -1.80344060e-01  4.98233959e-02  2.87887543e-01
   1.37476578e-01  2.22288296e-02 -2.11421192e-01  2.56480843e-01
  -1.76311776e-01  2.31480062e-01 -2.90304959e-01  2.75566839e-02
  -4.04880762e-01  5.86268269e-02 -1.93548933e-01 -8.47533941e-02
  -4.55888838e-01 -7.01287389e-02  4.49776322e-01 -1.07479647e-01]
 [-2.60772318e-01  6.45467043e-02  1.31275177e-01  1.11760106e-02
  -9.08923447e-02 -1.03964664e-01 -1.47483289e-01  1.16528206e-01
  -4.85451639e-01  6.63807616e-03  1.09342784e-01 -3.98983598e-01
  -2.99214959e-01  4.13284332e-01 -1.08441673e-01  1.50929123e-01
  -2.34215647e-01  4.15824316e-02  1.78920314e-01 -1.10851064e-01
  -3.55118096e-01  7.32774138e-02 -4.72752303e-02  2.96433717e-02
  -2.08397344e-01  4.31105256e-01  6.41675070e-02  2.31669873e-01
  -7.54256248e-02  1.24777839e-01  4.26553071e-01  1.56741589e-01
  -6.00841194e-02 -1.90786302e-01 -6.14514053e-02 -3.47782493e-01
   3.11206102e-01  3.47382855e-03 -1.36221582e-02 -2.50901192e-01
  -1.94025487e-01 -6.07941270e-01 -1.08760230e-01  3.09224606e-01
  -3.44269872e-01 -3.19537610e-01 -3.33201624e-02 -2.91191459e-01
  -2.78693847e-02 -5.17563164e-01  3.59787166e-01  5.60815781e-02
  -3.07867467e-01 -9.22466964e-02 -9.80783007e-05  4.25254494e-01
  -8.98184478e-02 -1.05892219e-01 -1.62358973e-02 -1.44031405e-01
   1.27209127e-01  1.54646158e-01  3.30930315e-02  8.38362239e-03
   1.88940108e-01  5.08943260e-01  8.50089341e-02  1.42774424e-02
   5.30946255e-02  8.76971185e-02  1.99600264e-01  6.89319223e-02
  -6.36933893e-02  9.19724330e-02  6.13076128e-02 -8.41134116e-02
  -4.50405367e-02  1.51344478e-01 -1.28845096e-01 -3.76701206e-01
  -2.28590921e-01  3.22476192e-03  1.91466570e-01  6.05049022e-02
  -1.66002572e-01  2.55546242e-01  6.90079331e-02  1.65965974e-01
  -2.41577789e-01  1.76666439e-01  8.53630714e-03 -3.51682037e-01
  -5.44378102e-01  5.72304353e-02  2.38296315e-01  1.03434615e-01
  -4.83937524e-02 -1.51242092e-01  4.07638364e-02 -2.73318887e-02
   1.56300105e-02 -5.56333661e-01  5.65062881e-01  4.31744397e-01
   2.69969136e-01  1.90421581e-01 -4.61804532e-02  3.86596113e-01
   2.12296709e-01  2.98112005e-01  3.06281243e-02  5.59078269e-02
  -3.71517152e-01 -4.85292077e-02  1.30672172e-01  2.95451641e-01
  -5.41293383e-01 -1.16456419e-01  6.43953502e-01  9.48054194e-02]
 [ 1.47167534e-01  8.21514428e-02 -2.52104588e-02 -2.79277712e-01
   2.89489124e-02 -9.47234184e-02  5.79978107e-03  1.61223009e-01
  -3.09490025e-01  2.40838453e-01 -6.87034875e-02 -2.18963146e-01
  -5.72772145e-01  1.35086209e-01 -1.62891343e-01  1.58170655e-01
  -8.10990930e-02 -6.35886192e-02  1.12858504e-01  1.14748523e-01
  -2.09774971e-01  2.48531457e-02  8.42790380e-02 -5.92589080e-02
  -1.32008269e-01  2.26677075e-01 -1.29760988e-02  1.86080977e-01
  -3.14406872e-01  1.12882644e-01  3.24058235e-01  1.17991768e-01
  -2.27285717e-02 -2.84797758e-01 -1.49172649e-01 -3.78068566e-01
   9.31053832e-02  1.61778927e-01  1.39268771e-01 -1.38553962e-01
  -2.49606699e-01 -3.60199392e-01 -3.94801274e-02  2.35512868e-01
  -2.99635857e-01 -2.02808484e-01  1.85283534e-02 -5.27031422e-01
   4.74547036e-02 -5.27728558e-01  1.91155002e-01  2.71111466e-02
  -1.67840630e-01 -1.68721884e-01 -1.04877777e-01 -3.27010849e-03
  -1.39547795e-01 -1.35351554e-01  2.17192531e-01 -1.74922019e-01
  -1.43524811e-01  2.16799945e-01  1.31505638e-01 -1.79841998e-03
   4.87575270e-02  1.59591958e-01 -2.72543170e-02  1.82074785e-01
   2.44209822e-02  1.47060409e-01  6.85271174e-02 -4.31078710e-02
   2.14597046e-01  8.58421996e-02  1.58945411e-01 -1.61331758e-01
  -4.09906320e-02  3.95661406e-02  6.12133741e-02 -1.85389608e-01
   9.09135863e-02 -1.51045620e-01 -1.73266791e-02 -9.69199836e-02
  -2.14580119e-01  2.18961284e-01  1.97315410e-01 -5.93792163e-02
  -4.74279702e-01 -2.29213014e-02  2.75152102e-02 -6.24941826e-01
  -2.66846687e-01  1.44540608e-01  1.71111688e-01  4.06087674e-02
  -9.22340304e-02  2.04104315e-02  7.05862790e-02  1.60662308e-02
  -2.82410393e-03 -2.39189133e-01  2.41022378e-01  2.44467363e-01
   7.01351240e-02  1.31176189e-01  1.98009163e-02  2.68465906e-01
  -7.67951682e-02  7.10009113e-02  2.05977578e-02 -3.22386883e-02
  -5.62475979e-01 -6.18004054e-02 -6.39300048e-02 -8.50338340e-02
  -2.47888669e-01  1.55241415e-01  3.96441728e-01  1.47523880e-01]
 [ 2.65365720e-01 -1.18043438e-01 -2.22236309e-02  1.43586859e-01
  -4.72647138e-02  1.46279156e-01 -4.57487404e-02 -9.39334780e-02
   6.64666146e-02  1.56208500e-01 -5.88956997e-02 -1.98045179e-01
  -4.74193618e-02  1.24062948e-01  1.09660238e-01  5.14726900e-02
   8.03223699e-02  7.48141408e-02 -2.17433739e-02 -7.81050976e-03
  -8.24698433e-02 -2.94096768e-01 -2.18004379e-02 -1.13532439e-01
  -7.74720162e-02 -3.65285091e-02  7.18044341e-02  1.04816422e-01
   8.19792151e-02  1.00389861e-01 -7.65455700e-03 -5.80736026e-02
   2.00815871e-01  2.29548570e-02  5.64976931e-02  1.22621544e-01
   3.53943929e-02  2.17723131e-01  1.26563400e-01 -9.48496759e-02
   2.11745948e-01 -1.29908085e-01 -1.72919750e-01  7.96902403e-02
  -1.41676158e-01 -4.57786992e-02  6.77347705e-02  9.43034589e-02
  -5.16161323e-02  1.50993709e-02  4.47681695e-02  9.16088596e-02
  -1.95061058e-01  1.08986147e-01 -1.83917180e-01 -2.94359118e-01
  -9.71801579e-02 -1.37495130e-01  1.94176853e-01  1.74236491e-01
  -1.17230773e-01  6.34272620e-02  2.29207203e-01  1.14060000e-01
   1.95243299e-01 -2.20002338e-01 -1.05255954e-01  3.76425833e-02
   2.56099813e-02  4.66923155e-02 -1.68488044e-02 -3.27381268e-02
  -8.31472725e-02  2.31336817e-01 -2.19759345e-01  2.32481956e-02
  -1.56186551e-01  3.79484035e-02 -1.60540789e-01 -2.22262114e-01
   2.66027421e-01 -4.49970812e-02  6.65772241e-03 -2.35893279e-01
  -8.82587507e-02  2.53722109e-02 -1.26120642e-01  4.14354876e-02
  -1.36682183e-01  1.26646325e-01 -2.29764655e-02 -7.11999228e-03
   2.79710833e-02 -2.32494369e-01  1.80579629e-02 -1.79394558e-01
  -9.41309109e-02 -2.00123727e-01 -6.45632893e-02  2.36341923e-01
  -1.27451912e-01  2.59467643e-02 -1.64634749e-01 -1.78905368e-01
  -1.55232862e-01 -5.89327365e-02 -3.85939777e-02  9.09890085e-02
  -1.59715842e-02  1.22865155e-01 -3.64444293e-02 -2.83380717e-01
  -8.06601346e-02  9.92158335e-03 -2.24008560e-02 -1.08431177e-02
   1.83902477e-04  1.42493367e-01 -3.99154536e-02 -2.17168778e-01]
 [-2.33414441e-01 -2.33453676e-01  3.20523053e-01  1.04088150e-01
  -3.57895106e-01 -4.69174497e-02 -2.08602324e-01 -1.88995048e-01
  -1.03534825e-01 -1.34613469e-01 -1.92267954e-01 -9.94084999e-02
  -3.98969389e-02  1.66688368e-01 -1.17286496e-01 -1.50107801e-01
   1.52772784e-01  2.62330741e-01 -6.00740835e-02 -5.24990261e-01
  -3.01153272e-01 -2.49626219e-01 -3.64705563e-01 -2.18107365e-02
  -3.43943574e-03 -3.10882807e-01 -4.08901237e-02 -1.32753700e-01
   4.70198467e-02  4.24447469e-02 -3.18597071e-02 -1.01135820e-01
  -6.63004145e-02 -6.86119869e-02  2.37558410e-01  4.34019685e-01
  -1.71018854e-01 -3.18260223e-01 -1.95939690e-01 -1.90320924e-01
   2.61576593e-01 -2.34846190e-01 -3.04681137e-02 -2.00032651e-01
   1.24915063e-01  1.67668715e-01  1.61398128e-01 -9.88558754e-02
   2.38613427e-01  1.14538945e-01 -2.50044046e-03  1.40393257e-01
   7.33530521e-02  2.46029422e-01 -4.47947472e-01 -1.55831769e-01
   2.03701124e-01 -2.12918893e-01 -1.15922466e-01  3.65919918e-01
   1.20441467e-01 -8.88503250e-03  4.19507101e-02 -2.37095833e-01
   1.56470805e-01  1.87973734e-02  2.24936884e-02 -1.68043777e-01
   1.04578838e-01 -1.12315856e-01 -8.60501826e-02  3.36697221e-01
  -3.48502882e-02 -3.97172451e-01 -2.74831802e-01  2.37895191e-01
  -1.79753631e-01 -2.42706761e-01 -3.15159202e-01  1.93473727e-01
  -1.49560943e-01 -1.05127037e-01  8.83291140e-02  1.88337922e-01
   8.14350843e-02 -1.43212453e-01 -1.77022383e-01  1.33876503e-01
   5.16197383e-02  2.88917497e-02 -3.01393837e-01 -8.49359334e-02
  -2.87357301e-01 -6.77739680e-02 -4.13042232e-02 -1.79786995e-01
  -2.86600977e-01 -2.15363011e-01 -4.14075196e-01  7.06372932e-02
  -2.58219421e-01  2.30565503e-01 -6.41129687e-02  8.54732245e-02
  -2.24384621e-01 -6.50560483e-02  4.36973237e-02 -7.63041750e-02
   2.60563821e-01  1.87021598e-01 -1.10744379e-01  1.57693908e-01
   1.61388934e-01  1.29642859e-01  3.50052863e-02  1.72969311e-01
   1.51149824e-01  2.20236834e-02 -1.20231412e-01 -2.41243616e-01]
 [ 3.58244479e-02  1.20237902e-01 -7.51421750e-02 -2.11511731e-01
  -1.11499041e-01 -7.87983090e-02 -3.43221463e-02  3.24878037e-01
  -3.06960315e-01  2.13258982e-01  3.90930586e-02 -3.86671662e-01
  -6.40721023e-01  2.99842358e-01 -4.39323410e-02  2.17146873e-01
  -9.76361781e-02 -5.01521900e-02  1.26332328e-01 -1.09490052e-01
  -1.97086468e-01  1.12604104e-01  1.30988881e-01  9.65339504e-03
  -8.89806673e-02  4.95244324e-01  8.56698677e-02  1.69399291e-01
  -4.07455593e-01  8.09994563e-02  4.22340006e-01  3.52107435e-01
  -9.62581113e-03 -2.55776137e-01 -3.81521210e-02 -4.90643740e-01
   3.95443827e-01  7.53601193e-02  9.56507996e-02 -1.11106783e-01
  -2.74362832e-01 -4.58219856e-01 -1.63238108e-01  2.38115817e-01
  -3.81815583e-01 -2.43583962e-01 -1.71748493e-02 -4.48523253e-01
   3.15235220e-02 -4.88606960e-01  2.56504208e-01  2.52111219e-02
  -2.65369564e-01 -1.50662363e-01 -1.77851871e-01  7.13400021e-02
  -2.19325617e-01 -2.03730576e-02  8.73388201e-02 -1.29726991e-01
   4.89333458e-02  6.47573099e-02  1.20950319e-01  1.57565251e-01
   2.05242261e-01  2.15388626e-01  4.80691269e-02  6.26385817e-03
   1.37174763e-02 -7.82266259e-02  1.92359701e-01  5.83903454e-02
   1.76380008e-01  2.52395928e-01  6.30954802e-02 -2.56141275e-01
  -9.23125073e-02  3.29546742e-02  5.49510680e-02 -3.59521419e-01
   1.19451918e-01 -1.40257999e-01 -1.83981601e-02 -1.14593722e-01
  -4.48146999e-01  3.40225011e-01  5.12989312e-02  8.54947716e-02
  -6.28580630e-01  1.20522855e-02 -1.65810175e-02 -6.13258183e-01
  -3.62369239e-01  3.09905242e-02  5.56500442e-02 -9.55954120e-02
  -3.25494766e-01  2.04869770e-02  2.04173267e-01  8.14484581e-02
   3.55034508e-02 -4.19518620e-01  2.58248925e-01  3.76284450e-01
   3.13209981e-01  1.35259971e-01 -8.88489187e-02  3.12325716e-01
  -1.74922254e-02  2.09403083e-01 -1.27045453e-01 -1.17166534e-01
  -5.78804493e-01  9.52954218e-03 -6.33169040e-02 -8.62326548e-02
  -5.62594831e-01  5.06027229e-02  4.09609109e-01  1.59566589e-02]
 [-3.36438507e-01 -5.01959957e-02  1.58537284e-01 -3.90355363e-02
  -1.27712682e-01 -1.18233599e-02 -1.13061890e-01 -1.53646037e-01
   1.44526824e-01 -3.01195085e-01  3.61639191e-03 -2.26818677e-02
   7.26903975e-02 -1.12442471e-01  1.33614436e-01 -3.27103399e-02
   9.95761454e-02  1.58759549e-01 -3.97701949e-01  4.82808873e-02
  -2.92313602e-02 -1.16179049e-01  8.70461203e-03  5.15822098e-02
  -3.31413522e-02 -5.74476905e-02 -3.15773159e-01 -7.64992312e-02
   6.85558468e-03 -2.57910918e-02 -1.24517530e-01 -9.80897024e-02
   3.32592204e-02  1.47960469e-01  1.12006508e-01  1.45490840e-01
  -1.72387838e-01 -1.14791401e-01 -1.60435453e-01 -2.84752082e-02
   5.15655354e-02  1.68240204e-01 -3.47906984e-02 -2.59702712e-01
   1.35999948e-01  1.96824238e-01 -5.78124858e-02 -2.00785026e-02
   5.72380088e-02  7.37360939e-02 -3.16418931e-02 -1.41083881e-01
   7.68331885e-02 -2.79255467e-03 -3.25040855e-02  1.34535385e-02
   4.73491661e-02 -1.04111452e-02 -3.62463236e-01 -4.44713384e-02
  -3.85264568e-02  6.11242838e-02 -2.48427689e-01 -5.25630593e-01
  -5.33254668e-02 -4.51436378e-02 -3.67663614e-02 -1.90523535e-01
   7.39748776e-02  7.40157366e-02 -3.63673002e-01  4.91457060e-02
  -9.28193331e-02 -1.42886758e-01 -5.50056398e-02  1.68775439e-01
  -2.15822253e-02 -9.42106098e-02  1.27245430e-02  1.18659228e-01
  -4.23133343e-01  1.49185527e-02  6.21634908e-02  7.97935277e-02
   4.51220982e-02 -7.73250088e-02 -1.62008330e-01 -7.25649223e-02
   9.88083631e-02  6.86575770e-02 -3.22530210e-01 -1.08940061e-02
  -3.88021991e-02  1.92350447e-02  1.02701642e-01 -1.48702078e-02
   8.70507956e-02 -1.27060991e-02 -2.43491039e-01 -2.28347868e-01
   6.54658824e-02  1.53469920e-01 -1.04059279e-01 -1.83736458e-01
  -1.19922481e-01 -3.99885662e-02  1.04715087e-01 -1.90613657e-01
   1.03182368e-01 -7.73476511e-02  1.43214241e-02  1.47991568e-01
   6.61852211e-02 -3.79368141e-02  4.27053049e-02  2.07696497e-01
   1.05046839e-01 -2.53255293e-02 -1.39881939e-01 -9.01738834e-03]
 [ 1.13998227e-01  7.34111592e-02 -7.82835260e-02 -3.10159296e-01
  -1.04149848e-01  2.10520346e-03  6.73330054e-02  5.89279085e-02
  -6.61003217e-02  7.71307573e-02  5.23720905e-02 -9.08534005e-02
  -2.98888385e-01  4.67548929e-02  4.83289640e-03 -2.18449757e-02
  -5.91121204e-02 -7.81980157e-02  1.59243524e-01  1.01066129e-02
  -1.82043582e-01  7.56289735e-02  5.06125167e-02  1.84188373e-02
  -2.05661505e-01  1.70389414e-01  6.85064122e-02 -9.59639996e-03
  -3.19802105e-01  1.07205771e-01  5.09946980e-02  1.10922083e-01
  -2.21048249e-03 -1.28968626e-01 -1.38812453e-01 -1.27568945e-01
   1.93154380e-01  1.67278643e-03 -2.34842151e-02  5.33810481e-02
  -2.80165404e-01  1.25637287e-02 -1.23415925e-01  8.98912847e-02
  -1.91739067e-01 -9.21608433e-02 -5.12698060e-03 -3.01198095e-01
   4.67327908e-02 -1.53859779e-01 -2.95812134e-02  4.11356129e-02
  -1.44175440e-01 -1.15934066e-01  6.00114325e-03  1.37384653e-01
  -2.04353988e-01 -5.03434986e-03  6.03104904e-02 -1.95512753e-02
  -1.64826643e-02 -3.41157392e-02  4.71784137e-02  8.86138007e-02
  -7.20824599e-02  2.45794952e-01 -4.60850187e-02  4.04863581e-02
  -1.14502132e-01  2.06726585e-02 -2.54853144e-02 -7.75118321e-02
  -2.63869949e-02  2.15082183e-01  1.30813047e-01 -7.19300136e-02
   2.13031564e-02 -4.88441214e-02  7.59576336e-02 -1.61083594e-01
   2.12329477e-01 -1.36471391e-01 -3.37114334e-02 -4.30116802e-03
  -1.07532114e-01  1.12811513e-01  9.77252126e-02  8.61056671e-02
  -4.76865262e-01 -7.83722382e-04  1.28109202e-01 -4.48863506e-01
  -6.94337040e-02  8.61595292e-03  4.88992706e-02  2.24156864e-02
  -4.45672572e-02 -5.94488941e-02  6.08855896e-02 -1.20317526e-02
   1.22337706e-01 -1.60847470e-01 -2.72636227e-02  2.47885123e-01
   6.92071393e-02 -3.63852195e-02 -2.91128736e-02  1.93819225e-01
  -3.10934857e-02 -1.48112336e-02 -8.64469111e-02 -1.22540906e-01
  -5.01349688e-01  4.74203005e-02 -6.85575455e-02  5.03897145e-02
  -2.46864885e-01 -1.89660639e-02  2.81070322e-01  1.63590759e-01]
 [-2.96267867e-01  1.72921389e-01  1.28555149e-01  1.16511837e-01
  -4.05196577e-01  2.14891266e-02 -1.89691801e-02  9.41041186e-02
   3.79266823e-03 -2.44270623e-01 -2.62808174e-01 -1.79971024e-01
  -3.85343693e-02 -2.14422971e-01 -2.53490716e-01 -1.14943482e-01
   1.78018421e-01  2.60419786e-01 -2.18596190e-01 -4.28008258e-01
  -2.56137103e-01 -3.22240144e-02  1.58031750e-02 -1.49885237e-01
  -5.67680411e-02 -2.21425787e-01 -2.80305464e-02  1.15682315e-02
  -1.42190173e-01 -9.03975517e-02 -1.79331377e-01 -6.04477674e-02
  -2.02077836e-01 -2.85735607e-01  1.38293087e-01  1.45564526e-01
  -2.38028765e-01 -3.27052861e-01 -1.14823297e-01 -5.86385168e-02
   1.28258154e-01 -1.20168410e-01  2.27862701e-01  2.22493503e-02
   2.66083866e-01  3.29181641e-01 -7.64970556e-02 -1.21968307e-01
   2.19382882e-01  1.48743510e-01  8.86480585e-02 -3.54537874e-01
   5.87666370e-02  2.03489989e-01 -5.15393794e-01 -3.16303313e-01
  -5.39462492e-02 -9.81837884e-02 -2.08955649e-02  3.69132534e-02
   4.19948250e-01 -3.59981768e-02  4.95557413e-02 -2.11058840e-01
   5.51212877e-02 -2.67024279e-01  1.70926824e-02 -1.60018578e-01
   2.27889001e-01 -2.52876729e-01 -1.34500176e-01  2.19498709e-01
  -1.37041453e-02 -3.66927922e-01 -1.10838056e-01  1.13112077e-01
   5.76288849e-02 -3.12673897e-01 -2.96695441e-01  1.45235322e-02
  -1.11153601e-02  1.06734969e-01  1.11517236e-01  8.88623148e-02
  -8.14938769e-02  2.11947574e-03  1.15497828e-01 -1.13629766e-01
  -7.29103088e-02 -1.37827650e-01 -1.71581164e-01 -3.36582810e-02
  -1.29932955e-01  3.02777570e-02 -1.22333631e-01 -3.62226933e-01
  -3.99241030e-01 -6.08974434e-02 -3.06687474e-01 -9.32636485e-02
  -1.56202242e-01  1.96110800e-01  4.52539288e-02 -2.75541216e-01
  -7.05541447e-02 -2.74693191e-01 -7.03628659e-02 -8.28676373e-02
  -2.80996300e-02  2.44814232e-01 -2.24688411e-01  1.05506899e-02
  -4.29672301e-02 -3.78999971e-02 -3.92007083e-02 -5.01111709e-02
   1.37851581e-01  1.40453175e-01 -2.41101071e-01 -2.66852140e-01]
 [-3.70424062e-01  1.80825055e-01  1.17768236e-01 -8.91940482e-03
  -5.22739291e-01 -1.93702891e-01  1.74514189e-01  3.43893543e-02
  -8.97338241e-02 -1.86310053e-01 -4.01901174e-03  1.27135754e-01
  -9.21052396e-02 -2.58095264e-01 -3.39669943e-01  6.85971230e-02
   2.42740557e-01  3.07467252e-01 -1.59085572e-01 -1.70133412e-01
  -1.58983767e-01 -1.47761390e-01  3.67955640e-02 -8.80224705e-02
   1.62937909e-01  1.30712524e-01  3.71711254e-02 -1.01935513e-01
   1.45012029e-02 -1.11781560e-01  1.41203836e-01  1.27029285e-01
   1.89557895e-01 -2.39335179e-01 -1.26032710e-01 -3.52141969e-02
   1.46845415e-01 -2.82216549e-01 -1.09236754e-01 -2.43310601e-01
   1.49868235e-01 -2.95647293e-01  2.41225511e-01 -1.52430162e-01
   7.43636489e-02  4.37140048e-01  1.68890744e-01 -1.14252381e-01
   9.77523103e-02 -2.13529453e-01  4.41248082e-02 -5.67809306e-02
   1.48817942e-01 -6.26605600e-02  4.43324856e-02 -8.76761079e-02
   1.78745732e-01 -2.27071017e-01 -2.04363793e-01  1.61163643e-01
   1.93047628e-01 -1.12391315e-01  4.92747873e-02 -8.03288370e-02
   2.43297875e-01  8.53098407e-02 -1.12073660e-01 -1.49128929e-01
   6.07569404e-02  1.30553385e-02 -5.66986315e-02  2.78047115e-01
   1.80416450e-01 -4.18685019e-01 -8.27669203e-02  1.05637059e-01
   1.95612550e-01 -9.32703763e-02 -2.99325317e-01  1.25288993e-01
  -8.72402638e-02  1.03812493e-01  1.08804442e-01  5.60865030e-02
  -2.25201413e-01 -1.54084206e-01  1.14277467e-01 -1.14187732e-01
  -2.36480772e-01 -1.52881503e-01  4.21442762e-02 -2.13755235e-01
  -1.71699777e-01  1.84364900e-01  3.68366651e-02  7.03897327e-02
  -2.32262313e-01 -2.54728377e-01 -2.49317929e-01 -2.25464687e-01
  -9.23965871e-02 -8.38981271e-02 -7.89083168e-02  1.04139172e-01
   1.18713051e-01 -1.00064911e-01 -2.25506667e-02 -4.36636023e-02
   1.43340737e-01  2.39104703e-02 -3.53864759e-01  4.45197076e-02
  -6.86518177e-02  1.59190465e-02 -2.47914284e-01  9.97012705e-02
  -2.04504859e-02  2.91739345e-01 -9.95637402e-02 -5.55327013e-02]
 [-2.18719199e-01 -6.70856684e-02  1.11200482e-01  8.78323540e-02
  -1.82394639e-01  1.93554327e-01 -1.08728714e-01 -8.61217678e-02
   5.75289056e-02 -4.10651386e-01 -1.87119633e-01 -9.11636204e-02
   4.18885946e-02 -1.64808974e-01  8.85848608e-03 -1.82052016e-01
   2.39714663e-02  1.08467586e-01 -4.83669609e-01 -5.03240153e-02
  -2.65950393e-02  2.34471373e-02 -8.82925764e-02  1.73249975e-01
   8.05823356e-02 -2.11483210e-01 -1.35700077e-01 -3.73178311e-02
   1.39460508e-02  7.56648788e-03 -1.28918946e-01 -3.29020470e-02
  -6.63430765e-02  1.24050692e-01  2.05849379e-01  1.08864516e-01
  -1.81449801e-01 -9.24138203e-02 -1.63068712e-01  7.39969984e-02
   5.99621758e-02  1.89322811e-02  6.94632754e-02 -2.49448605e-02
   2.10477322e-01  3.73192206e-02 -2.89533641e-02 -5.20807784e-03
   1.08353764e-01 -4.74526873e-03  1.16360128e-01 -1.44316316e-01
   1.60857618e-01  5.35974614e-02  2.49385573e-02  4.21707816e-02
   1.61287631e-03  4.48528752e-02 -3.04404736e-01 -1.28136888e-01
   8.86452049e-02  8.32970515e-02 -1.07110873e-01 -4.04521137e-01
   1.57280434e-02  5.86661436e-02  7.38855125e-03 -1.68818250e-01
   1.73053399e-01 -6.40751198e-02 -3.67527515e-01  1.03026189e-01
  -2.36309171e-02 -2.86890626e-01 -1.19886242e-01  7.15215281e-02
  -1.57663375e-02 -1.64546549e-01  8.27853680e-02  3.22622985e-01
  -2.87231088e-01  2.08973121e-02 -1.01092361e-01 -2.37562082e-04
   1.48418978e-01 -1.38840243e-01 -9.09598544e-03 -1.42197847e-01
   8.10183734e-02  1.97442621e-01 -4.04580414e-01  1.67165861e-01
  -1.39820665e-01 -1.08285239e-02 -8.67643580e-02  6.21219017e-02
  -1.85311124e-01  1.12605616e-01 -1.67114824e-01 -1.47976637e-01
   7.72816837e-02  6.59900233e-02 -2.10295971e-02  2.58720480e-02
  -1.62966922e-01 -1.42515332e-01  1.54731303e-01 -9.49770212e-02
   5.79085909e-02  2.27919668e-02 -3.01558450e-02  1.49787217e-01
   7.99493790e-02 -1.75446317e-01 -6.98933825e-02  3.31507390e-03
   7.29014575e-02 -2.72837281e-01 -9.54828188e-02  5.57721034e-02]
 [-3.00574720e-01 -6.63780347e-02  1.38354629e-01 -3.31305265e-02
  -1.21131442e-01  1.44671470e-01 -9.54792835e-03 -1.64603367e-02
   4.72848415e-02 -4.10972208e-01 -6.14591725e-02 -7.76205063e-02
   8.26286227e-02 -4.47399504e-02  1.36569753e-01 -7.98067227e-02
  -4.58823927e-02  5.85791701e-03 -3.52499455e-01 -7.08119646e-02
   6.40736520e-02  4.00014110e-02 -3.47007695e-03 -5.47081511e-03
   3.93168628e-02 -8.34402740e-02 -2.66701579e-01 -8.13218206e-02
   7.39273727e-02  2.02730186e-02 -1.04678283e-02 -7.73040503e-02
  -1.86844096e-01  1.35195017e-01  9.09257382e-02  1.36233076e-01
  -1.89800769e-01 -1.95443079e-01 -8.20757076e-02  1.17086053e-01
   8.86576027e-02  9.70073193e-02  7.26220710e-03  6.55230433e-02
   1.84205875e-01  1.64903224e-01 -4.89696115e-02  5.03901057e-02
  -6.84326515e-02  6.40421212e-02 -5.75601943e-02 -2.23339900e-01
   1.05120279e-01  5.16220257e-02  2.32172906e-02 -2.77430359e-02
  -2.64308956e-02  1.49772376e-01 -1.14266820e-01 -1.52519166e-01
  -1.00738443e-01 -5.00520989e-02 -1.94735095e-01 -3.06057721e-01
  -4.72410657e-02 -6.08180612e-02  1.69146247e-02 -1.44496411e-01
   2.42488477e-02  3.01629081e-02 -2.92685717e-01  1.94368482e-01
  -1.31311521e-01 -8.67349654e-02  4.27696258e-02 -7.85390735e-02
  -1.09555863e-01 -8.84413198e-02 -2.51440257e-02  2.45592669e-01
  -2.73937285e-01 -2.67647430e-02 -7.55045712e-02  5.05033545e-02
   1.67090654e-01 -7.99324811e-02 -1.96665507e-02 -1.79829344e-03
   6.00866927e-03  2.01220125e-01 -3.34821731e-01  6.83919117e-02
  -1.38810731e-03 -8.34480822e-02  3.60776260e-02 -6.94765225e-02
  -8.51801112e-02  1.48312915e-02 -4.46478054e-02 -2.62791514e-01
   1.37979807e-02  1.39536843e-01 -6.85521811e-02 -1.07543483e-01
   3.63477618e-02 -2.70978026e-02  1.30744487e-01 -2.06423238e-01
   6.33444041e-02  4.67779115e-02 -4.55898084e-02  2.36287639e-01
   1.22810446e-01 -6.34836331e-02  7.28228167e-02 -3.81619856e-02
   1.67836100e-02 -2.39656925e-01 -1.75448775e-01  2.56226282e-03]
 [-9.06511210e-03 -5.58284000e-02  3.25647965e-02 -1.81546912e-01
   6.50423467e-02 -2.38815069e-01 -2.82815754e-01  6.36397973e-02
   1.80035010e-02  1.64591402e-01  2.82143056e-02 -2.57754847e-02
  -1.25643820e-01  1.48488563e-02 -1.15587011e-01 -5.61773814e-02
  -3.15000683e-01 -1.22322164e-01  2.27529749e-01 -2.64707625e-01
   1.95794433e-01  1.73774846e-02 -1.09941289e-02  3.33319046e-02
  -6.93001449e-02  1.96629405e-01  9.48419571e-02 -5.20677902e-02
  -1.93648964e-01  5.10277636e-02  1.43855006e-01  9.16716754e-02
  -1.19246431e-01 -1.15383677e-01 -7.13540614e-02 -1.06346391e-01
  -2.72809081e-02 -1.27471369e-02 -1.13107018e-01 -3.29734027e-01
  -3.91899385e-02  2.98055913e-02 -1.97435215e-01  1.24223270e-01
   4.33967356e-03 -2.05517188e-01 -1.75213236e-02 -1.36335656e-01
  -2.05834042e-02  6.24463558e-02 -1.67360902e-02  4.37766276e-02
   1.52579352e-01 -8.37510675e-02  1.17044160e-02 -1.55003712e-01
  -2.70502239e-01  7.25812539e-02  7.09967241e-02 -1.70308426e-01
   1.79710221e-02 -1.10607997e-01  4.86784205e-02  1.48062572e-01
   5.75059615e-02 -1.44873902e-01  5.20641096e-02 -1.50195926e-01
   1.24022916e-01 -2.70851314e-01 -7.64361816e-04 -1.37787044e-01
  -2.04097614e-01 -2.96684522e-02 -8.23232606e-02 -1.62213668e-02
  -2.93467700e-01  5.84493484e-03  1.67726159e-01 -1.53086036e-01
   3.06746680e-02 -2.26481974e-01 -1.33140311e-01  2.14699749e-03
  -5.56975305e-02 -6.83097690e-02  4.55759950e-02  6.12086356e-02
  -5.09783849e-02  5.89587316e-02  2.01580510e-01 -1.35582224e-01
   4.74865697e-02  7.70278051e-02  3.35094146e-02  2.32300609e-01
   8.08524787e-02  2.03858033e-01  6.07060567e-02  3.89159694e-02
   2.65367538e-01 -1.32411197e-01  2.86915991e-02  7.53438622e-02
  -3.33327651e-02  1.14207737e-01  2.09882438e-01 -5.67346103e-02
  -1.57115594e-01  7.17976540e-02  1.80459827e-01  5.00728376e-02
  -1.54854625e-01 -4.31647636e-02  1.96054414e-01 -3.33307311e-02
  -1.01937354e-01 -1.00757539e-01  1.53848737e-01  3.08395594e-01]
 [-2.51667708e-01  3.12311888e-01 -2.68364456e-02 -3.46253127e-01
  -1.21095762e-01 -2.68559903e-01  1.02741040e-01  1.34881437e-01
  -1.89867750e-01 -2.58147746e-01  1.01186939e-01  2.21152201e-01
  -2.41390511e-01 -3.06863278e-01 -3.88721079e-01 -4.73909900e-02
   9.89101455e-02 -8.53952020e-02 -2.09444553e-01 -2.42629722e-01
   7.29324063e-04  6.10032827e-02  8.22398439e-02 -3.60730201e-01
   1.58791155e-01  1.09453155e-02  7.34070018e-02 -4.24357742e-01
  -3.10066044e-01 -3.57899249e-01 -2.08133925e-02  1.71506926e-01
   2.66196907e-01 -2.50246912e-01 -8.47477764e-02 -2.99673796e-01
  -6.20858185e-02 -3.06865573e-01 -3.48063618e-01 -1.30314678e-01
   4.00799774e-02  2.21134853e-02  2.38708854e-01 -5.03554225e-01
  -9.51199140e-03  2.35160470e-01 -1.31215304e-01 -1.32977456e-01
   2.29699835e-01 -3.61896664e-01 -3.33865583e-01 -4.27125245e-02
   3.25411826e-01 -3.71088460e-02  4.80695255e-02 -4.61989269e-02
   1.48974925e-01 -1.36982247e-01 -4.93788898e-01 -8.71239081e-02
   3.48812282e-01 -3.23194981e-01 -1.36998966e-01 -6.72510117e-02
  -1.30477890e-01 -4.04012427e-02 -2.24067718e-02 -3.72992486e-01
  -1.41313672e-01 -1.68115839e-01 -8.35337639e-02 -3.73556763e-02
   1.92020088e-01 -4.81198937e-01  5.62874787e-03 -3.23626041e-01
   1.84726968e-01 -4.26392518e-02  5.43673150e-03 -1.21919170e-01
  -2.86920607e-01  2.21079096e-01  2.28834257e-01  1.15530200e-01
  -9.05092806e-02 -3.90377551e-01  2.14796886e-01  1.07445173e-01
  -1.93040758e-01 -3.12408447e-01 -6.63486961e-03 -3.04762214e-01
   8.07607099e-02  1.18638165e-01 -6.89290613e-02 -3.06850076e-02
   1.58570871e-01  1.65647436e-02 -2.16363654e-01 -3.55980426e-01
  -8.09169412e-02  1.56974033e-01 -1.48366943e-01  8.29078034e-02
   9.26031247e-02 -4.48071003e-01 -2.47105435e-01 -2.48777390e-01
   9.95878279e-02 -3.63458842e-01 -2.46296182e-01  1.52578160e-01
  -2.72297144e-01  1.03232063e-01 -3.11353132e-02  1.11999549e-01
   2.33812422e-01  2.03468412e-01 -2.32643932e-01  7.87626952e-02]
 [-6.28487825e-01 -4.57248986e-02  6.43398985e-02  1.44674301e-01
  -3.38928789e-01  4.17834558e-02 -5.01933275e-03  1.22662194e-01
  -1.14825428e-01 -2.27473646e-01  2.27582827e-02  2.83365604e-02
  -6.94134757e-02 -1.10017635e-01 -6.27733693e-02  3.24156508e-02
  -6.58769011e-02  2.28050321e-01 -3.40101689e-01 -2.56845862e-01
  -1.14720345e-01  1.09898429e-02 -7.29188770e-02 -5.04290685e-02
   9.59889591e-03  6.29774556e-02 -1.28603086e-01  1.15558123e-02
  -4.13087346e-02 -3.83992568e-02  1.22577488e-01  3.19494046e-02
   1.29491106e-01 -2.66604304e-01  1.20528499e-02 -1.33192003e-01
   3.43190320e-03 -4.67818737e-01 -1.66920066e-01 -1.09714478e-01
   7.02461004e-02 -3.88106525e-01  8.27016979e-02  1.66799307e-01
   1.71528310e-01  2.75354117e-01 -1.81860328e-02 -1.36895686e-01
   1.03893779e-01 -1.24176398e-01  7.34285787e-02 -7.37276822e-02
   1.50769919e-01  1.95339829e-01 -1.48354858e-01 -1.40578836e-01
   1.11187801e-01 -2.11207822e-01 -1.97945878e-01 -1.61163777e-01
   1.98999375e-01  3.44875827e-02  4.41357605e-02 -2.71753609e-01
   1.43739238e-01 -6.32397225e-03 -3.09049059e-03 -3.20200533e-01
   2.77173966e-01 -2.25242883e-01  5.20982146e-02  2.68608034e-01
   1.67857967e-02 -5.24068236e-01 -5.25496639e-02  6.81001320e-02
   5.72301522e-02 -9.77955014e-02 -8.48592743e-02  1.98520437e-01
  -3.20187271e-01 -7.21314251e-02  2.06118479e-01  1.92156985e-01
  -6.05394430e-02 -8.72159749e-02  5.20175807e-02 -1.31686822e-01
   6.58541918e-02  2.29052361e-02 -1.66063100e-01 -2.71055140e-02
  -3.25045347e-01  1.26032382e-01 -3.07875890e-02 -7.32182562e-02
  -2.53263116e-01 -1.34239897e-01 -1.79750323e-01 -2.45724261e-01
  -1.60557926e-01  8.34523961e-02  2.36881077e-01  7.30924448e-03
   8.61622207e-03 -1.34270385e-01  1.20054401e-01  1.30183235e-01
   2.95310974e-01  1.60113484e-01 -1.39099583e-01  2.31088445e-01
   7.69011602e-02 -7.65688792e-02  4.89957333e-02  4.43182737e-02
   3.43869925e-02  1.25164971e-01 -2.04760507e-01 -1.25314370e-01]
 [-5.60219400e-03 -1.66414723e-01  1.74455762e-01 -3.78986686e-01
  -4.94831055e-02 -9.70950127e-02 -1.66015968e-01 -2.94466019e-02
  -2.64707524e-02 -9.45179258e-03 -1.56378627e-01 -1.27557859e-01
  -5.24902761e-01  1.59601733e-01 -2.39723310e-01  1.28922820e-01
  -9.18498263e-02  2.95759994e-03  6.21188097e-02 -4.43716526e-01
  -9.21161622e-02  8.99281129e-02 -1.19387977e-01 -5.02518192e-02
  -2.14650601e-01  3.18310559e-01 -1.34704575e-01  3.93153615e-02
  -3.40483695e-01  3.27817723e-02  7.15026632e-02  1.85384661e-01
   1.12369850e-01 -2.13509381e-01 -1.47472754e-01  2.70204484e-01
   1.16517924e-01 -3.07812355e-03 -7.90534541e-02 -4.93146032e-01
   1.10051751e-01 -2.81065524e-01 -1.34770930e-01  4.19241451e-02
  -1.01784654e-01 -1.98616624e-01  8.65772367e-02 -2.97503442e-01
  -2.43198462e-02 -2.24521875e-01 -1.16882987e-01 -5.33678755e-03
  -7.26895360e-03 -2.34578308e-02 -3.30852509e-01 -2.88465232e-01
  -1.58519030e-01  2.98654735e-02  1.46438196e-01  6.58148155e-02
   7.70882331e-03 -1.31646348e-02 -2.47808620e-02  5.48669137e-02
   3.78537662e-02 -2.85502940e-01  9.72770229e-02 -4.55607623e-02
   1.14091046e-01 -4.13809776e-01 -2.98608430e-02  1.24060564e-01
  -2.74662040e-02  8.10193717e-02 -1.54759496e-01  1.12649396e-01
  -1.41982436e-01 -1.22728348e-01 -2.51002284e-03 -1.00712717e-01
   5.20666828e-03 -1.40164003e-01  4.66352254e-02 -1.14265479e-01
  -1.48471847e-01  1.82073005e-02 -1.03795268e-01 -4.02148329e-02
  -4.57404703e-01 -3.19626778e-02 -1.07931562e-01 -5.31417906e-01
  -3.54504555e-01  4.27816110e-03  1.90054134e-01  2.81959977e-02
  -2.65843809e-01 -2.66499426e-02 -6.39031529e-02  7.60860592e-02
   8.73091631e-05 -2.43936926e-01  1.53076993e-02  1.02344505e-01
   9.59879234e-02 -1.65600535e-02  8.06872174e-02  2.06202120e-01
  -2.39728913e-01  1.79741517e-01 -1.18035413e-01  3.51866782e-02
  -4.06930983e-01  3.16961855e-02  3.24277133e-02 -3.25609557e-03
  -2.56320406e-02 -2.07851417e-02  1.86798036e-01 -8.72348472e-02]
 [ 1.03981614e-01 -4.63102423e-02  9.81102958e-02 -1.73082650e-01
  -1.75664335e-01 -1.52856618e-01 -8.61416683e-02 -7.77009351e-04
  -1.38028070e-01  1.10416323e-01 -9.97443032e-03 -2.50694752e-01
  -3.90554130e-01  6.29939139e-02 -1.06611140e-01  1.13793522e-01
  -1.20865323e-01 -3.97838429e-02  6.93056285e-02 -3.45800281e-01
  -6.20562360e-02  2.03478813e-01 -1.01063490e-01  1.30963534e-01
  -3.21605980e-01  2.27149785e-01 -9.25394595e-02 -1.04923714e-02
  -2.34018072e-01  1.64271966e-01  2.40048781e-01  1.93514690e-01
   6.42184615e-02 -8.51185173e-02  2.39073895e-02  5.40390611e-02
   3.07647809e-02 -7.74376243e-02 -1.99733585e-01 -3.65163207e-01
  -7.96951875e-02 -2.22310945e-01 -1.69506416e-01 -4.62235361e-02
  -2.51694709e-01 -1.89323872e-01  5.99444956e-02 -3.44770998e-01
  -1.02482632e-01 -2.03884169e-01  1.96457654e-03  8.98028016e-02
   2.70998236e-02  7.00186193e-02 -2.56109625e-01 -9.82158631e-02
  -2.56441265e-01  3.11350003e-02  6.47340938e-02 -9.18353647e-02
  -6.32261261e-02 -6.20284826e-02 -3.47403809e-02 -3.38675305e-02
  -8.79430622e-02 -9.35240649e-03 -9.34098288e-02 -1.87263697e-01
   7.53152817e-02 -2.43234709e-01  8.19228888e-02 -9.51542482e-02
   1.52219862e-01  1.19234420e-01 -1.00769088e-01  4.47659940e-02
  -2.61961848e-01 -7.79031590e-02  1.37687027e-02 -1.20172389e-01
  -6.71514589e-03 -1.19739585e-01 -1.21927850e-01  1.17889727e-02
  -1.94106057e-01 -1.63161084e-02  8.74552205e-02  1.09389335e-01
  -3.74241680e-01  1.27413183e-01  9.77030210e-03 -3.31518918e-01
  -2.69684941e-01  3.06368060e-02  1.51155144e-01  3.16571072e-02
  -1.15471773e-01 -3.01979519e-02  6.99383840e-02 -6.69014379e-02
   2.11298957e-01 -1.68686077e-01 -1.28990725e-01  2.15397745e-01
   1.85495421e-01 -6.79918602e-02  1.91711962e-01  1.64757445e-01
  -1.01828381e-01  5.86621277e-02  1.51380040e-02  1.71762273e-01
  -3.01141292e-01 -1.33456632e-01  1.98966131e-01 -1.32465050e-01
  -1.63641334e-01 -1.02550201e-02  3.04077178e-01  1.79829389e-01]
 [-6.24674708e-02 -1.34570941e-01  2.46962801e-01 -1.49502218e-01
   2.87305526e-02 -5.05224988e-02 -1.62053555e-01  2.03270465e-01
  -4.06728923e-01 -1.13186128e-01  1.03696339e-01 -1.92568764e-01
  -4.12645817e-01  7.62815699e-02  1.47310877e-03 -9.12588239e-02
  -2.05384895e-01  5.72635271e-02 -2.46426258e-02 -1.63201779e-01
  -2.45820925e-01  2.36649632e-01 -4.61060032e-02 -8.72095004e-02
  -1.59996942e-01  2.04021513e-01 -2.35758811e-01  5.28480448e-02
  -2.34941915e-01 -1.04458138e-01  2.09684789e-01  9.11396295e-02
   2.09441455e-03  1.68610103e-02  2.10133687e-01  8.95477906e-02
   1.21730886e-01  7.06924172e-03 -8.77850428e-02 -4.25571233e-01
  -1.49359062e-01 -3.80845308e-01  3.57274190e-02  1.06107622e-01
  -5.66371046e-02 -2.45849460e-01 -1.32278651e-01 -3.92925620e-01
   7.27372020e-02 -4.89711612e-01  2.58194536e-01  1.68189615e-01
   4.45510913e-03  5.73688522e-02 -1.52737498e-01  2.17135981e-01
